// This file is generated. Do not edit.
// Generated on: 22.01.2023 17:03:21

#include "tensorflow/lite/c/builtin_op_data.h"
#include "tensorflow/lite/c/common.h"
#include "tensorflow/lite/micro/kernels/micro_ops.h"

#if defined __GNUC__
#define ALIGN(X) __attribute__((aligned(X)))
#elif defined _MSC_VER
#define ALIGN(X) __declspec(align(X))
#elif defined __TASKING__
#define ALIGN(X) __align(X)
#endif

namespace {

constexpr int kTensorArenaSize = 169508;
uint8_t tensor_arena[kTensorArenaSize] ALIGN(16);
template <int SZ, class T> struct TfArray {
  int sz; T elem[SZ];
};
enum used_operators_e {
  OP_QUANTIZE, OP_CONV_2D, OP_DEPTHWISE_CONV_2D, OP_PAD, OP_MEAN, OP_RESHAPE, OP_FULLY_CONNECTED, OP_SOFTMAX, OP_DEQUANTIZE,  OP_LAST
};
struct TensorInfo_t { // subset of TfLiteTensor used for initialization from constant memory
  TfLiteType type;
  void* data;
  TfLiteIntArray* dims;
  size_t bytes;
  TfLiteQuantization quantization;
};
struct NodeInfo_t { // subset of TfLiteNode used for initialization from constant memory
  struct TfLiteIntArray* inputs;
  struct TfLiteIntArray* outputs;
  void* builtin_data;
  used_operators_e used_op_index;
};

TfLiteContext ctx{};
TfLiteTensor tflTensors[100];
TfLiteRegistration *registrations[OP_LAST];
TfLiteNode tflNodes[38];

const TfArray<4, int> tensor_dimension0 = { 4, { 1,96,96,3 } };
const ALIGN(8) int32_t tensor_data1[4*2] = { 
  0, 0, 
  0, 1, 
  0, 1, 
  0, 0, 
};
const TfArray<2, int> tensor_dimension1 = { 2, { 4,2 } };
const ALIGN(8) int32_t tensor_data2[2] = { 1, 2, };
const TfArray<1, int> tensor_dimension2 = { 1, { 2 } };
const ALIGN(8) int32_t tensor_data3[2] = { -1, 1000, };
const TfArray<1, int> tensor_dimension3 = { 1, { 2 } };
const ALIGN(8) int32_t tensor_data4[5] = { 20, -11, -55, -14, 25, };
const TfArray<1, int> tensor_dimension4 = { 1, { 5 } };
const TfArray<1, float> quant4_scale = { 1, { 0.00014145916793495417, } };
const TfArray<1, int> quant4_zero = { 1, { 0 } };
const TfLiteAffineQuantization quant4 = { (TfLiteFloatArray*)&quant4_scale, (TfLiteIntArray*)&quant4_zero, 0 };
const ALIGN(8) int8_t tensor_data5[5*1000] = { 
  -32, 3, -19, 0, -71, -19, -14, 61, -39, -43, 78, 4, 63, -22, 28, 26, -7, -3, 5, -23, 38, -43, 14, 26, 10, 56, 12, 59, -28, -23, 26, -56, 29, -5, 28, 38, -44, 50, -31, 17, -31, 40, 21, -38, 27, 17, -13, -29, 41, 5, 48, -59, 15, -33, 43, -56, 68, -38, -50, 14, -37, 71, -49, -5, -20, -29, 66, 52, -26, 42, 34, -56, -15, -20, 59, 3, -34, 9, -11, -68, 32, 5, -45, 1, -31, 33, -5, 21, 41, -44, -25, -27, 7, -58, 3, 54, -41, -5, -54, 37, -30, -23, 59, -49, 46, 6, -9, -9, 12, 5, 57, -50, 54, -56, -62, 7, -48, 50, 22, -26, 57, 60, 5, -38, 101, 35, 40, -7, -49, -27, 47, -40, 12, 30, 25, 12, 5, 32, 34, 38, 58, -28, -39, -26, 22, 21, 32, 37, -2, 49, -11, 47, -20, 16, 52, -50, 13, -33, 26, -29, 48, 43, -5, 54, 6, -22, -8, -38, 13, -8, -55, 14, 31, -34, 50, 43, 31, 1, -48, 5, 37, 24, 51, -16, 67, 45, -1, 6, -39, -19, 60, -2, -8, 31, -31, 39, -26, 32, 54, 25, -25, -48, 12, 27, -63, -36, -22, 50, 53, -51, 45, -40, -8, 44, -2, -10, 20, -63, 22, 34, 54, -48, -24, -21, -17, -30, 13, -25, 52, 25, 55, 39, -54, -10, 43, -45, -26, 50, 60, -61, 27, -48, 5, -44, 1, 28, 9, 46, 10, -59, -74, -59, -32, 13, -18, -27, -58, 8, -4, 0, -4, 41, 4, 62, -34, -28, 38, -15, -38, 3, -5, 46, -35, 39, 23, -55, 34, 50, -13, -41, -41, 17, -68, 32, 13, 35, 20, -55, 2, 36, 2, 5, -32, 52, 11, 4, -67, 35, 42, -13, 57, 73, 56, -13, -27, 46, 63, 1, -19, 18, 20, -14, 34, -16, 61, 59, 0, 23, -24, 20, -59, 41, -34, 11, -40, -36, 39, 30, -18, 7, 62, -22, 12, 58, 54, 27, -55, 31, -14, -25, -17, -32, 12, -43, 15, 49, 43, -45, 23, 45, 1, 38, -2, -5, 68, 52, -22, -60, -16, 55, -20, -45, -55, 46, -52, 43, 15, -56, 9, -40, 33, 35, -61, 14, 4, -32, 50, 44, -9, 12, -15, 45, -22, 28, 35, -54, -23, -38, 47, -36, 61, -40, 14, 36, 40, -15, -15, -34, 8, 1, -37, 4, 31, -37, -25, -3, 37, 41, 3, 37, -20, 38, 55, 36, 30, 40, -44, -12, -40, 27, 7, -45, -6, 29, 39, 48, -9, -6, 28, -63, -12, 67, 39, 74, 60, -35, -55, 52, 24, -40, -24, 32, 38, -16, -41, 64, 42, 10, 20, -8, -33, -16, -26, 32, -7, 55, -63, 52, 55, -35, 37, -27, 24, -3, 10, -64, -47, -2, -40, 39, 39, -46, 59, 50, 18, -17, -53, 35, -8, 35, -32, -23, 1, 30, 31, 44, -35, -1, -21, 62, 17, -23, 30, -18, -34, 16, -45, 68, 44, 55, 36, -61, 17, 55, 25, 29, -28, -58, -30, 42, 69, -31, -33, -12, 16, 2, 51, 66, -33, -51, 63, 21, 46, -22, 52, -21, -32, -7, 18, -26, -57, 29, 46, -37, 55, 20, 12, 74, -4, 24, -38, 18, 0, -4, -57, 8, -21, -12, 7, -24, 41, -8, 46, 37, -60, -5, 34, 41, 22, -12, -48, 10, 35, 4, -20, -34, 14, 35, -69, 53, -34, 37, -51, -56, -36, 45, 58, -20, -14, 11, -21, 25, -8, -20, -55, -28, 34, 36, -59, 30, 3, 45, -12, -13, 7, 8, -42, -19, -34, 45, 32, -46, -16, -56, 4, -47, 63, 22, 37, -23, 12, 46, -41, 38, -7, 30, -12, -16, -15, -40, -50, 0, 6, 52, -62, -24, -52, 62, 43, -48, 32, -48, 17, -17, -6, -3, -10, 57, 59, 50, 46, 37, -47, 42, 17, -59, -10, 8, -53, 10, -34, 33, 10, 52, 22, -38, -56, 32, 26, -30, -57, 38, 49, 84, 29, 6, 55, -36, 59, -40, -57, 19, 17, 61, 45, -35, 74, -7, -23, -39, -17, 60, 2, -52, 54, 16, -50, -7, 9, -27, -1, -18, -12, 36, 38, -15, 38, -13, -46, 36, -31, -40, 38, -4, 40, 19, 33, -55, -24, -15, -41, -3, -44, -44, -23, -48, -39, -37, 43, 50, -34, -48, 28, 65, 45, -15, 35, 27, 26, 31, -18, 57, 3, -22, 35, -58, -66, 46, -25, -30, -39, -14, 58, 7, -34, -64, 1, 14, -1, -58, -33, 14, -52, -6, 31, -12, -26, -42, 51, -36, -20, -7, -25, -23, -10, -38, -60, 63, -16, 14, 38, -5, 1, -56, -31, -11, -47, -2, -2, -34, 22, 42, 44, -40, 14, -27, 4, 6, 1, 0, 15, -22, 54, 92, -31, -28, 23, 61, -38, 32, -55, 30, -25, -31, 29, -34, -21, 53, 43, -41, -57, -40, 26, -5, 72, 19, 12, -10, 60, -13, 53, 62, 60, 24, 28, -15, 41, -30, 37, 48, -39, -41, -23, -78, 38, -24, -27, 31, -20, -8, -13, 9, -79, -8, -20, -31, 55, 42, 34, -25, 37, -49, -23, 41, 30, -11, -14, 43, 33, -35, -13, 39, -19, 22, -25, 8, 8, 14, 40, -57, -26, -58, -1, -33, -16, 2, 61, -47, 57, 3, -61, 10, -35, -57, 26, 13, -43, 6, 8, 1, 5, 22, -1, 6, -48, -65, 9, -16, 24, -44, -101, -29, -49, 22, 24, -45, 61, 28, -29, 36, 39, -10, 28, 63, -46, 23, -48, 46, -37, -12, -51, -11, 35, 49, 40, 5, -33, 56, 42, -11, -9, -34, 72, -48, 28, -49, -61, 19, -30, -32, 9, -50, -36, -53, -18, 30, -18, -20, -49, -16, -69, 11, -31, 28, -55, -25, 20, -16, -57, -25, -9, 31, 1, 25, -18, -32, -54, -10, -24, 62, -38, 52, -15, -31, 8, -58, 42, -56, -26, -62, 15, 39, 2, -42, 50, 56, 46, 33, -5, -3, 24, -40, 0, 3, 50, -27, -27, -23, 45, 25, 
  -29, -59, -21, 96, 28, -14, 14, 47, -35, 21, 22, 9, -29, 49, -58, 12, 56, -42, 16, 46, 33, 65, -25, 68, -2, 46, 27, 21, -14, 18, -65, 14, -11, 19, -19, 35, 81, -44, 0, -45, -33, -22, 30, -31, -12, 41, -41, -31, -42, -10, -54, -6, -9, 25, -50, 42, 48, -24, -89, -47, -28, 85, -21, -69, -25, -1, 61, 49, 65, -55, -4, -53, -16, 39, -11, 36, 95, 45, -37, -56, -38, -21, -18, -15, 15, 25, -55, -5, 34, -47, 11, -31, 37, 4, 48, -15, -10, -39, 22, -15, 1, 25, -49, 0, 35, -8, 20, 32, -61, -17, 7, -64, 26, 7, 3, -31, 60, 12, -22, -29, 50, -42, -68, -71, 17, -40, 50, -9, -33, 34, 18, 2, 48, 51, 71, 56, -19, -14, 14, 20, -12, -53, -73, -4, -46, 47, 20, 11, -40, 41, -1, 85, -39, 29, -12, 12, -28, 64, -5, 60, 61, -29, -16, -10, -27, 13, 49, -52, -56, -13, 33, -25, -11, 58, 17, -22, 13, 55, -43, -15, 53, 37, -47, 29, -50, -50, 24, -67, -10, 5, -42, -7, 22, 34, -29, 14, 75, 76, 8, -21, -32, -31, -50, 70, -21, -43, 25, 53, -54, 62, 74, 43, -28, -23, -8, -33, -6, -26, -13, 36, -11, -57, 41, -3, -15, -10, -51, -23, -77, 25, -19, 14, -22, -31, -53, -19, 27, 51, -23, -12, -42, -34, -27, -16, -3, -38, 22, -33, -31, -12, 6, 40, 78, -16, -22, -28, 48, 53, -54, -43, -44, -28, -47, 60, 58, 0, -32, -10, -37, 25, -20, -14, -18, -55, 29, -17, -3, -27, 14, -14, 28, 13, -7, 30, 64, 15, 35, 20, 29, 32, 67, 50, -40, 31, -10, -3, 13, 45, -12, 32, -33, -71, 3, 104, 8, 53, -3, 70, 30, -13, -44, 5, 50, 23, 3, -60, -27, 4, -36, 24, -1, 11, -41, 54, 17, -46, 77, -7, 6, 50, -31, 9, -39, -41, 25, -60, 56, -45, 27, -32, -18, 40, -50, 63, 10, 11, -22, -45, 42, 54, 35, -19, 7, 22, 48, 70, -22, 13, -65, 47, -59, -35, 74, -34, -53, -69, -3, 53, 42, -55, -38, -12, -22, 35, 42, 19, 64, -68, 47, 27, 10, -24, -49, 37, -13, 50, 12, -16, 15, -5, 0, -20, -66, 25, -23, 63, 45, 2, -43, 17, -22, 30, 54, -13, 55, 26, 65, -30, 51, 64, -3, 18, -35, 20, 70, 27, 9, 35, 28, 46, 23, -49, 30, 21, -24, 51, -44, -27, 22, 17, -52, 5, 85, -54, 19, -41, 39, 46, 53, 0, 2, -1, 7, -57, 42, -93, -12, 35, -23, 24, -21, 20, -45, 74, 0, 6, -13, -21, -85, 58, -39, 32, 20, -18, 30, 55, -43, -22, -54, -8, 32, -7, -67, -12, -43, -54, 35, -21, -61, -70, -27, 32, 17, -1, 28, -4, -34, -14, -8, 62, -24, 59, -35, 42, -41, -3, 13, -3, 19, 16, 49, -8, 31, 9, -59, 10, -72, -52, 45, 30, 54, 22, -1, 24, -40, 65, 11, 53, 9, -53, 19, -58, -50, 20, 47, 54, -45, 68, -32, -40, -26, -35, 29, -1, 10, -23, 9, -52, -40, 7, -6, -8, 17, 43, 25, -50, -34, 39, 32, 60, -9, -17, -32, -11, -49, -60, 28, -69, -47, -68, 41, 3, -11, -41, -14, 64, -55, 41, -64, -17, 76, 30, -55, -53, -10, -20, 7, -32, 54, 13, 20, -38, -63, -38, 35, 0, 36, 44, -28, -4, -16, 13, 33, 28, -27, 42, -33, 10, 36, -43, 33, 50, 42, -49, 33, -27, -8, 6, 6, -52, -49, 30, -50, 42, 45, 50, -45, -31, -17, -30, 20, -104, 49, 39, -53, 33, 47, 53, 12, -60, 53, 4, 40, -38, -19, -3, 35, 36, -27, -62, 31, 10, -18, -28, -40, -38, 3, -13, 18, 52, -17, 48, 4, 27, -55, -42, -65, 57, -20, 8, 34, -35, 48, 10, -12, 28, -49, 3, 33, -27, 28, -2, 61, 15, 58, -40, -57, -55, 16, -2, -12, 28, 16, 3, -29, 46, -17, 42, 26, 44, -37, 52, 5, -1, 56, -61, 38, 59, 72, -7, -49, -44, -40, -63, -66, -64, -7, 45, 14, -26, 17, -35, -54, -52, -30, 18, 27, -56, -62, -34, 0, -53, 43, 29, 44, -51, -19, 2, 50, 25, 32, 30, 52, 29, 33, -58, 22, -6, 29, 57, 4, -40, 57, 55, -51, -31, 50, 22, -30, 40, 3, 15, 77, 41, 6, 66, 31, -44, 35, -46, -33, -17, 3, 13, -7, -43, -6, -52, 65, 60, 61, -32, 52, -1, 32, -53, -48, -3, 57, -49, 48, -47, 27, 59, 9, -19, -50, 46, 36, -47, 58, 28, 3, -28, 5, -31, 11, -5, 24, -3, -34, -39, 8, -51, -2, 12, 25, -3, -2, -43, 53, -41, -51, -53, -80, -25, -83, 5, 31, 17, 18, -15, 37, 25, -9, -58, 77, 17, 8, -28, -23, -43, -33, -29, -47, 7, -4, -19, -35, 22, -30, -64, -66, -2, -51, 41, -55, 60, -7, -43, 18, 49, -10, 41, -21, -57, -51, 39, -38, -68, 15, 44, 15, 35, -2, 27, 38, -67, -42, -36, -42, 34, 44, 14, 11, -4, -63, 34, -50, 5, -36, 39, 4, -59, -14, 9, -10, -64, 40, 22, -76, 39, 15, -10, -15, 28, 15, 43, 47, 29, -59, 14, -48, 32, -15, -21, -1, 44, 42, 2, 12, -14, -2, 28, -30, -34, -1, -3, 74, -53, 4, 37, 16, -72, 51, -86, -50, 6, 28, -4, 10, -35, -2, 45, -9, 4, -8, -78, 15, -26, 5, -37, 18, -39, 20, -1, -34, -67, 30, -2, -31, -37, 32, -5, -42, -52, 20, 45, -30, 35, 18, 53, 32, 49, -20, -24, 21, -49, 48, 38, 95, -74, 54, -25, 24, -50, 0, -51, 47, -11, -5, 27, 37, 52, 56, -66, -2, -7, -13, -75, 44, 11, 48, -37, -34, 41, 41, 11, -50, -26, 
  -60, 14, 15, 59, 61, -44, -35, -39, 38, 59, -64, 0, -75, 24, 127, 15, -53, 83, 27, -20, -44, 32, 11, -27, 29, -11, -31, 12, -24, 37, -10, 64, -61, 47, 44, -2, -30, -57, -40, -53, -14, 57, -55, -56, 13, 25, 14, 2, 66, 43, 4, -26, -14, 57, -50, 61, 48, 18, -38, -31, -20, -57, -42, -16, 10, 9, 49, 62, -1, 44, 16, 60, 35, -35, 4, -32, -24, -73, 59, -49, 3, -51, 13, -33, -28, -23, -44, -52, -54, 18, 30, 48, -6, -61, 1, 26, -31, 19, 6, 34, -41, 8, -32, -18, -7, -39, -18, 74, 34, -56, 69, -32, 19, 54, 2, 19, -9, 34, 44, -77, -45, 52, -59, 7, 32, 46, -42, -39, 40, -26, -70, 24, 64, -7, 11, -22, -31, 20, -36, 36, -9, -45, -17, 23, -46, -13, 24, -56, -18, 75, 39, 12, -13, -50, -5, 46, 39, 13, 34, -69, -11, 26, 1, 3, 29, 17, -9, -62, -15, 38, -13, -6, 23, 38, -18, 10, 18, -8, 12, 46, -56, -11, -41, 62, -20, 64, -37, 56, -7, -33, 57, 30, -47, 77, 51, 48, -35, -23, -11, -34, -18, -41, 43, 25, -36, -60, -71, -47, 35, -90, 8, 18, -31, 66, 15, 40, 49, -43, 4, 2, -60, -46, -29, 27, -70, 36, -8, -72, 75, -23, 15, -47, -2, 57, -26, -21, -43, -67, 27, 18, 17, 44, 47, -30, 51, -23, 22, -42, -21, 81, 29, -16, -25, 46, 24, 29, 30, 27, -33, 5, 73, 7, 25, 24, -27, 54, 36, 73, -32, -41, 64, 41, -69, -3, 10, 32, -64, -75, -46, 17, -69, -45, 19, 8, -4, -17, -56, -50, -9, 15, 43, -4, 22, -7, -58, 16, 26, 54, -1, -33, 3, -33, -15, -50, 40, -14, -60, 15, -53, -45, -61, 51, 44, 51, -70, 37, -20, -36, -16, 35, 53, 20, -57, -37, 25, 20, 51, -46, 56, 28, 37, -22, -38, -3, 50, -44, 40, 11, -44, 18, 34, -84, -49, -31, 13, -12, -9, 34, 49, 39, 35, -56, -6, -41, -62, -21, 23, 14, -10, -43, 37, -39, 10, -64, 49, -33, 51, 19, 11, 22, -9, -18, 40, -35, 54, -44, -16, -49, 22, -5, -44, 44, -7, -10, 15, -28, 50, 11, -36, -72, 22, 23, 45, -23, 34, -39, -60, 66, 26, -39, 43, 10, -42, 65, -51, -54, -25, -37, -10, -4, 16, -63, 62, 49, -28, 17, 41, 57, -38, -12, -23, -24, -34, -5, -57, -49, 11, 23, -8, -33, 50, 6, -28, 16, -2, -2, -41, 61, 11, -64, -29, -11, 19, -49, -36, -42, -54, -2, -22, 49, -50, 56, -68, 50, -40, -36, -28, 23, -22, 60, 47, -31, -57, 20, 14, -44, 43, 51, 60, 14, -63, -40, -60, 34, -62, 5, -48, -12, -3, 12, 57, 5, -15, 49, 38, -11, -46, -32, 3, -21, -27, -54, -50, -8, 35, 14, -24, 37, 9, -57, 16, -7, -23, 23, -44, -47, -22, -7, -48, -31, -43, 14, -59, -26, -2, 29, -53, -35, 17, -20, 4, 10, -3, -28, 3, -36, -62, -55, 37, -12, 31, -30, -16, -27, -58, 49, 55, 1, 15, -46, -39, 29, -49, -1, 65, -55, -38, 12, -27, -58, -3, -48, 33, -12, -44, -33, 13, -50, 4, 55, 11, 20, -10, 41, 28, 33, -52, -60, -76, -46, 34, 1, 53, 59, -42, -31, -43, 10, 34, -25, -7, 67, -51, 30, 49, -13, 57, 33, -16, 27, -25, 11, 13, -3, 19, 11, -70, -23, -30, -64, 66, 31, 42, -43, 46, -56, 26, -33, 48, 52, -1, -28, -27, 59, -48, 52, -40, 36, -7, 50, 59, 20, 48, 62, 46, -16, -47, -47, -41, -1, 20, 14, 9, -45, -46, -42, 42, 32, -74, -5, 62, -37, -4, 39, -59, -51, -12, -17, -40, 5, -36, 51, -58, 3, 0, -48, -32, -24, 3, -8, -63, 7, 22, 59, 47, 20, 44, -35, 66, 42, 90, 70, -65, 23, -3, -18, 2, 45, -5, 58, 44, 2, -64, -69, -45, 61, 48, 49, -13, 57, -3, 51, -45, 18, 7, -27, 20, -48, 0, -34, -36, 14, -56, -74, 42, 54, -1, -40, 50, 0, -12, -51, 30, 44, -6, 32, -87, 62, 16, 38, -67, -33, 46, 68, -44, 38, -9, 21, 39, -39, -50, -38, 21, 27, -11, 3, -62, -41, -52, 36, 10, 33, 17, 9, -21, -30, -19, -52, 65, 15, -71, -45, 38, 36, -5, -40, 0, 19, 54, -6, -49, 20, -36, 19, 1, 1, -60, 57, 29, 10, -14, 30, -24, -41, 70, -10, -80, 50, 18, -54, -13, 61, 10, 31, -14, -60, -29, 19, 62, 49, 38, 31, -25, -63, -42, -13, 79, -53, 52, -54, 59, 17, 63, -38, 39, 49, 111, 59, 30, -20, -61, 19, 10, 42, -27, -63, 64, -12, 21, -54, -20, -46, -43, -7, -25, 53, -25, -5, 5, -21, 23, -13, 20, -14, 34, 23, -12, -52, 53, -42, 34, -6, 23, -20, -62, -44, 34, -2, -13, 58, 43, -30, 57, 55, -22, 9, 3, -1, 49, 12, 36, 13, 56, 19, 1, -8, -15, -23, -19, 36, 3, -20, -23, 53, -39, 56, 20, -2, 33, 22, 60, -27, 10, 18, -49, -9, 52, -3, -3, -27, -57, -45, -31, -10, -35, -5, 62, -45, -21, 31, -27, 8, 24, 67, 40, 47, -72, 5, 36, -11, -43, 35, 59, 18, -49, 16, -46, -39, 25, -14, 14, 20, 48, -22, -53, 7, 19, -37, 58, 32, -18, -61, -86, 10, -44, -31, 9, -34, -48, 61, -60, -50, 18, 27, 3, 10, 23, -42, 36, 40, -39, 15, -32, 23, -66, 25, 7, 18, 57, -22, -30, 40, -10, -29, -67, -22, -45, -1, -23, -53, -30, 11, 54, 47, -45, 56, -54, 10, 30, 17, -50, -29, 34, -39, 53, 2, 49, -90, -15, -42, 30, -9, 8, -33, 23, 14, 45, -4, -71, 27, 
  -29, -9, -55, -42, -8, 27, -29, 49, -6, 66, -58, -39, -43, 24, 24, -3, 18, 19, 3, 24, 52, 30, 11, -33, -23, -25, 51, 47, 4, -9, 37, -21, 32, -1, -71, -67, -51, 62, -7, -15, 30, -26, -48, 50, 68, -24, 33, -49, 69, 63, -18, -43, -62, -8, 21, 14, -6, 55, 3, -73, 1, 58, -23, -48, 10, -76, 5, -38, -57, -55, -22, -19, -32, 36, -16, 25, -56, 25, -9, 57, -38, 34, -46, 34, -2, -51, 29, 8, 19, -68, -50, -57, -38, 52, 42, 32, 20, 16, 36, -44, 34, -5, -23, -56, 4, -12, -33, -21, 42, 40, 20, -83, 70, 43, 55, -47, 40, -3, 60, -61, -14, -10, 57, 19, -49, -32, -53, -48, -20, 12, 23, 40, -37, -3, 1, -45, -34, -9, 25, 31, -7, 91, -33, 65, 41, 4, 22, -37, -51, 37, 9, -17, 12, 49, 9, 12, 50, 31, -45, -8, -18, 13, 38, -31, 23, -29, -26, 56, 56, -45, 37, 29, 55, 84, 34, 65, 0, -36, 13, -32, 14, 8, -44, 3, -57, -62, -45, 69, 51, -23, 42, -36, -85, 38, -10, -15, -61, 33, 3, -44, -11, -51, 5, -47, 5, 14, -1, 13, -22, 18, -14, 49, -38, -14, 25, 37, -33, 35, 54, -9, 6, -39, 58, 43, 24, 23, 39, 21, -11, -31, -28, 44, -54, 16, 65, -52, -9, 8, -1, 28, -42, -61, 54, -37, 67, 27, 34, -26, -30, -5, -85, 8, 59, -42, -17, 9, -41, 42, 43, 27, -24, -11, 43, -27, -21, 16, -18, -8, -28, -24, -39, -38, 15, -42, 25, -27, -21, -33, 4, -24, 42, -26, 92, -33, -7, -29, -10, 35, -61, 39, 43, 37, 48, -17, -52, 26, 33, -13, 16, -28, 8, -12, -68, -39, -52, 11, 44, -6, -6, -19, 25, 50, -23, -1, 43, 43, -21, -20, 27, 18, -17, -41, -25, 58, -22, -15, 10, 13, 41, 43, -19, -63, -60, 43, 21, 59, -22, -54, 34, 23, -35, -16, 50, 47, -10, 0, -16, -46, -2, 17, 9, -43, -61, 44, -6, 27, -28, -23, 24, 10, 19, -25, -45, -80, 57, 53, 39, -63, 17, -58, -63, 39, -26, 73, 56, -2, -47, 19, -8, 7, 22, 34, -19, 24, -17, -47, -2, 41, -72, -12, 49, 29, 43, -2, 26, 35, 49, 43, -32, -24, -68, 25, -71, -49, -49, 3, 33, -18, 19, -24, 27, 29, 20, 14, -71, -44, -30, 15, 47, 20, -29, 51, -36, -23, -34, -21, 33, -75, -47, 60, -44, 70, -53, -48, -54, -10, -21, -17, 49, 81, 73, -11, -6, -19, 2, -36, -12, -52, 41, 33, -60, 38, -20, -35, 76, 16, 43, 54, -37, -60, -29, -3, -1, 3, 21, 0, -43, 45, -20, -14, -17, 38, 43, -7, 45, 9, -39, -15, -38, 8, -54, -63, 22, -65, 9, -15, -7, 1, -58, 21, -45, 15, 41, -19, -1, -14, 63, -5, -1, 51, -42, 20, 26, 14, 52, 31, 41, -28, 5, -25, -13, -12, -22, 9, -59, -27, 20, -8, -65, -51, 17, -42, 18, 65, -52, -1, 27, -34, 31, 42, -24, 5, 24, 36, 24, 1, 71, -61, 28, 35, 62, -75, -43, -38, -20, 46, -54, 54, 24, -9, 32, 2, -6, -40, -60, -9, -31, 54, 32, 25, 34, 68, 22, 18, -14, 18, -24, -6, -20, 59, -77, -51, 30, 4, 19, 62, -3, 18, -72, 21, -35, 1, 27, 29, 36, -57, -23, -10, 2, -40, -80, -48, -66, 64, -70, -19, -53, -53, 44, -45, -17, 21, -1, -59, -63, 30, 13, 80, 2, 48, 57, -43, -59, 48, -25, 16, 4, 38, 56, 8, -40, -51, 24, 43, 48, 36, -51, -35, -16, -57, 0, -37, -65, -51, -42, 24, 27, 8, -9, -60, 13, -8, 13, -10, -45, 2, 11, -41, -19, 51, 29, 22, -6, 22, 62, 20, 13, 58, 60, -26, 29, -24, -33, 31, -6, 31, -34, 64, 18, 15, -6, 18, -40, -28, 37, -27, 35, -60, 24, 57, 57, -13, -2, -41, 9, 22, -41, -18, -11, -68, -32, -76, 30, -12, 27, -6, 56, -55, 21, 25, -6, -40, -43, 22, -32, 91, -60, -79, -22, 14, -55, 53, 7, 15, 54, 37, 9, 46, -52, -65, 3, -4, -8, 44, 3, 4, 5, -37, -34, -16, -60, 42, 67, -39, 65, -50, -55, -22, -46, -46, -11, -22, -54, -34, -32, -8, -64, 59, -10, -25, -3, -29, 60, 55, 10, -29, -20, 27, -2, -62, 44, 59, 83, -50, -61, -5, -25, 63, 45, -61, -47, 59, -59, -32, -20, 68, 30, 57, 19, 63, 48, 77, -28, 1, 62, 21, -12, -66, -47, 68, 25, -27, -63, 22, -11, -38, -12, -67, -19, -50, -29, 15, -45, 21, -5, 18, 73, -30, -54, 50, -35, 13, -54, 62, -33, -47, 25, -46, 30, 35, -7, -26, -19, -61, -28, 72, -61, -18, 11, 68, 0, -4, -23, 75, 82, -15, 39, 9, 56, -57, 33, 76, -5, -2, 38, 54, 6, -6, -56, -4, -43, -57, 6, -53, 37, 2, 79, 13, 32, 13, 35, 28, -8, 43, 53, 87, 69, -29, 22, -6, 45, -34, 27, 49, -22, -28, -48, 46, 61, -32, -28, 43, -67, -43, -55, 3, 51, 76, 14, -61, 26, 41, 60, -44, 39, -46, 31, -47, -66, 21, 39, 15, 5, 23, 56, 11, -86, 57, -28, 57, -39, -46, 56, -40, 57, -25, -17, -28, -44, 4, 39, 58, -31, -10, -6, -21, 49, -9, -39, 22, -47, -17, 34, 43, -3, 13, 50, -41, -66, 60, 65, 57, 37, -12, 49, 87, 1, 75, 25, 45, 85, -33, 37, 53, 21, 64, 16, 42, 40, 5, 82, 24, 40, -51, -38, -12, 16, 72, 6, 39, -12, 21, -16, -59, 41, -16, -30, -31, -43, 0, 35, 18, 50, -40, 0, -42, -4, 22, -14, 37, -6, 38, -31, 24, 9, -62, -57, 27, 43, 47, 
  44, -74, -36, -6, -6, -60, -56, -73, -49, 29, -57, 3, 29, -23, -37, 26, 62, 60, -30, 41, -24, 70, -50, -47, 67, 5, 59, 36, -52, 46, -33, 39, -56, 9, 13, -19, -31, 20, 44, -16, -29, 51, -67, -9, -11, -51, 52, -59, -38, -26, 22, 15, 4, 46, 13, -10, 25, 38, 43, 22, 8, -83, 65, 21, -29, 86, -44, -54, 62, -14, 65, -23, -4, 5, 48, -60, -26, -35, 21, 44, -48, -36, -65, 20, -10, -16, 6, 12, -61, -20, 47, 5, -49, 12, -26, -10, -39, 22, -26, -24, 6, 40, -8, -41, -66, -59, 56, -32, -37, 40, -19, 56, -5, -43, -34, 43, 15, 0, 72, -5, -59, -2, 4, 4, -7, 27, 62, -28, 16, -65, -12, 22, 44, 67, -68, 45, -16, 9, -7, 1, 41, -11, 13, 8, -4, 23, 51, 42, 28, 77, 0, 26, -43, 2, 4, -3, 55, -64, -30, -4, 63, -27, -22, -7, -61, -41, -10, 17, -14, -12, -6, 47, -33, 43, 59, -47, 46, 60, 6, -20, 47, -53, 75, -27, 23, -61, 43, 24, -49, 50, -42, 38, 52, 6, 3, 2, 51, 47, -12, -70, 66, -37, 15, 34, 19, -55, -40, -26, -12, -39, 16, -34, 19, -22, 30, 11, -45, 35, -59, -49, 34, -36, 38, 33, 56, 29, 40, 20, -13, 9, -13, 26, 60, 6, 36, 68, -35, -58, 20, 48, 19, 48, -10, 42, 1, -27, -7, -17, -35, -37, 71, -60, -54, -74, -26, -13, 44, -44, 62, -25, -10, -29, -34, -57, -61, -45, 6, -51, 32, 41, -61, 51, -54, -59, -19, -29, -36, -23, 4, 55, 46, 51, 45, 73, 81, 59, 60, 5, 50, 22, 36, -52, 52, 16, -25, -4, -52, 67, 11, 15, -8, -27, -35, -35, -83, -39, 32, -23, -31, -52, -6, -1, -3, 16, -23, -30, -55, 1, 26, -36, 28, -69, -7, 26, 5, 44, 45, -11, 34, 69, 37, 3, 47, 46, 39, -9, -15, 35, -17, -25, -39, 28, -17, 6, -50, 39, -57, 11, 20, 17, 44, 7, 53, 6, 49, 28, -55, 51, 45, -42, 21, 63, -36, 71, -46, -28, 10, 60, 63, -57, 35, 63, -22, 55, 58, 77, -46, -23, -46, 54, 57, 24, 35, -22, -51, 38, 16, 44, 52, 11, 46, 4, -51, -48, -24, 21, -4, 23, -14, -15, -29, 24, 1, 27, -20, 26, -51, -77, -80, -25, -33, -44, 5, 44, -42, -34, 4, 44, -60, 16, -15, 24, -57, -26, 67, -62, -60, -18, 44, -6, -89, -50, -12, 25, 1, -49, 31, -3, -23, 4, -40, -34, 30, 18, -63, 0, 0, 31, -55, -20, -9, 71, 21, 6, 60, 41, -60, 23, -6, 41, -34, 98, -29, -45, -51, 50, 47, 58, -84, 31, -56, -15, -45, 21, 39, 15, 53, 13, 33, -31, 28, -69, 1, 54, -4, -24, -74, -38, 19, 57, 3, -5, 29, 50, -22, 42, -3, 35, -63, -50, 36, -52, -58, 4, -67, -43, 55, -32, -53, 67, -30, -44, 12, 18, -35, -33, -37, 5, -22, 7, -36, -18, -19, 64, -33, 46, 32, -49, 15, 27, 7, -50, -55, 32, 53, 22, 4, 64, 6, -24, 22, -44, 19, 28, -23, 6, -33, 5, -60, 30, 22, 15, -18, -49, -12, -4, 39, -19, 23, 18, -44, 67, -4, 17, -11, 7, -41, 6, -19, -5, 44, -10, -43, -44, 45, -50, -27, 64, 49, 30, -10, -87, 46, -14, 27, -7, 7, -48, -24, 27, 51, 4, 20, -49, -31, 50, 56, -53, 38, 26, 0, -19, -11, 12, 5, 33, 50, 14, 61, 3, 29, -38, -25, 30, 45, -37, 33, 38, 51, 38, 5, 22, -46, -20, 0, 44, 56, 45, -48, 25, 24, 49, 6, 7, -29, 5, -38, -13, -37, -65, 19, -10, 39, -14, -42, 33, -1, -10, -1, -54, -31, -28, 59, -54, -5, 43, 38, -6, -36, 35, -20, 19, -17, 10, -56, 5, 31, 0, -44, 14, 5, -37, -39, 48, 19, -26, -30, 59, 54, -20, 4, 10, -3, -30, -7, 47, 48, 64, -58, 16, 37, 54, 7, 19, 37, -59, -28, 26, -51, 84, 39, 28, -70, -39, -33, -37, 26, 39, -46, 3, 40, 47, -28, -15, -31, 46, 34, -49, -36, -42, 55, 57, 42, -56, -24, 14, 14, 61, 22, -51, 27, -39, 7, 8, 26, -30, -30, 8, 75, -15, 6, -36, 50, 35, 58, 8, -46, -37, 28, 46, -65, -90, 38, -32, 25, -51, 68, -19, -9, -5, 21, 31, -20, -5, -30, -44, -61, 22, 46, -29, -91, -41, -49, -17, -63, -2, 11, -67, 34, 70, 63, -29, 33, -54, -66, -64, -4, -10, -77, 48, -52, -5, 15, 31, -30, -45, 41, 32, -35, 44, -35, -7, -68, -17, 51, -11, -24, -51, -17, 12, 45, 10, -60, 43, 38, 32, 33, -26, 24, -78, 35, -26, 17, -53, 70, -20, -14, -59, -57, 3, -18, 36, 55, -6, -9, 4, 40, 53, 28, 66, 53, 21, -25, -31, 15, -3, 41, -2, -59, -90, 39, 12, -62, -3, -1, -18, -2, 27, 100, 57, 30, -38, 38, -31, 10, -80, 61, 49, -46, -44, 12, 6, 47, -12, -49, 0, 25, 33, -23, 32, -51, 19, 25, -55, 52, 27, -54, -21, -49, -26, -39, 27, -59, 43, 50, -55, -56, 56, 13, -50, -22, -28, 4, -3, -12, -8, -12, 51, 10, 48, 44, 62, -4, -19, 15, -31, 53, 42, 57, 34, -63, -7, 81, -22, -7, -8, -43, 21, -55, 46, -17, -6, -36, 21, 10, -35, 65, 37, -26, 53, 66, 19, -56, -22, -14, -51, 68, 46, 94, -51, 8, 48, 32, -56, -44, -49, -8, 19, -45, -45, 24, -55, -60, 21, -20, 15, -40, -1, -15, -9, -12, -17, -45, 24, 28, 3, 21, 61, 56, 2, 18, -31, 73, -55, 58, 17, -7, 9, 42, -28, 22, -17, -49, 4, -61, -26, 25, 14, -25, -7, 
};
const TfArray<2, int> tensor_dimension5 = { 2, { 5,1000 } };
const TfArray<1, float> quant5_scale = { 1, { 0.001196392928250134, } };
const TfArray<1, int> quant5_zero = { 1, { 0 } };
const TfLiteAffineQuantization quant5 = { (TfLiteFloatArray*)&quant5_scale, (TfLiteIntArray*)&quant5_zero, 0 };
const ALIGN(8) int32_t tensor_data6[1000] = { 837, 6178, -2542, -9796, 6307, -6469, 4386, -6697, -5772, -4258, -10773, -9645, -4023, -4584, -5777, -10056, -6453, -6656, -2782, -5460, -4676, 7561, 7338, 8980, -3919, -1301, -1918, -3107, -560, 630, 1917, -2504, -3775, -1228, 1166, -17185, 2854, -4969, 6425, 5872, 3339, 6266, 2918, 832, 3315, 12780, 8760, 4934, 3802, 1715, 8586, -3887, 2673, -1029, -927, -453, 1130, 1386, 17913, 17540, -817, 10721, 6273, -4447, 8981, 6843, -6436, -5161, 480, 2528, -16284, 3171, -3244, -4455, -3436, -6533, 5510, -404, 3134, 6198, -31294, -7480, -8387, -34706, -8419, -4398, -11380, 2345, 1316, 9199, -9780, -498, -6022, -998, -5847, -10537, -4585, -13371, -18816, -10394, -10269, -9513, 10905, 14458, 9188, 8719, 10939, 256, -29, -10799, -7080, 14392, 12828, -7524, -3089, -15911, 5790, -8065, 10036, 5916, 4073, -2148, 10982, -4517, 10110, -5096, -2473, -6116, -10272, -6636, -2880, -7679, -2829, -5614, -12371, -7707, -20405, -10494, -16984, -18043, -14804, -14206, -15985, -13362, -6469, -7405, -7496, -7727, -8643, -8127, 4510, 5411, -11991, 1819, -4800, 2339, 1161, -10621, -8290, -335, -5441, 5011, 4428, 6708, 127, -624, -4618, -11196, 4606, -5713, 5782, 8664, 2044, 353, -3023, -9390, -2844, 5027, 10809, -1793, -1015, 355, 7351, 1322, 8640, 7759, -4262, 847, -12933, 2745, -6405, 6514, 446, -8284, -2179, 5519, 5165, 2273, -5994, 4352, -7312, 791, 11223, 1778, 3820, -2556, -10800, -2471, -1904, 10597, -14338, 1456, 5192, 4608, 5271, -2997, -1714, 5252, -2960, -670, -1820, -5776, -1368, 11902, -2708, 10073, -2809, -5139, -10449, 4906, -1288, -7241, -8492, 4223, 6444, -3489, 2331, 6628, 14716, 13833, -2493, -448, 4394, -3416, -9511, 4892, 496, 1057, -4426, -792, 3817, 4941, -1013, -7003, 7017, -4568, 295, 1219, -3639, -4493, -5870, -1798, -8567, 3803, -786, 2114, 1563, -9709, -6629, -1213, 464, -3887, -4551, -180, -6406, -723, 1808, -8572, -10984, -61, -1673, 3156, -6388, -1208, 1899, 4401, 7287, -5280, 2040, 3896, -294, -7922, -4505, -4588, -2830, 1736, 954, 5692, -958, 2560, -15650, -7493, -10633, -8673, -19385, 5321, -6192, -11405, -4611, 490, 10147, -7587, -7178, 26540, 6670, 5340, -4443, -5964, -1166, -5798, -9440, -19515, -24490, -17975, -8100, -15357, -17724, 4480, -2033, -5261, -136, -6047, 990, -4294, 879, -1617, 4839, -1987, -9039, -3044, -8576, 6029, -7708, -6625, 324, -1541, -1010, -4601, -3738, -2695, 1743, -9595, -13827, -11010, -1404, -6615, 1222, 1471, -2037, 9409, -7127, 14899, -2858, 6458, 4174, 10082, 2382, 10746, 377, 8047, -92, 1143, 4464, 9093, 7547, 6359, 1136, 7471, 11493, 13023, 1808, 10667, 8668, 5093, -2547, 4237, -1705, -8177, -1850, -3321, 2680, 4915, -16092, -4880, -176, 3394, -12205, -1345, 4559, 11712, 2455, 5886, 1705, -8085, -17436, 4123, -8348, -13202, -16559, -5201, 13110, 959, -1791, 5310, 1688, 5263, 6542, -790, 1462, 26715, 1731, 10708, -6244, 6576, 16969, -7021, -10238, 639, 4971, 5419, 6332, -4075, 1951, 2094, 2169, 4500, -18965, -12694, 914, -7763, 4732, 7865, 3196, 5810, -5204, 4767, 8104, 3946, 6329, -7686, 1865, -4528, 5798, 9110, 5471, 7263, 7428, 9123, 2258, 3713, -10356, 5520, 4291, 3625, 25646, 7364, -9313, 9003, -5499, -2692, 1048, 1601, -8916, 1807, -3992, 4331, -848, -1165, 15024, -8371, 10814, 5487, -3543, -12361, -16839, -2592, 4053, 4413, 1240, 24035, 7964, 4667, 5466, -12609, 5949, 930, 4377, -14815, 4330, 8460, 7734, -2414, 567, -15426, 4091, -2556, 8595, 5716, -3350, 2419, -11109, -14106, 1016, 5933, -960, 7755, -3869, -15584, -2887, 21400, -10633, -4708, 6138, 18099, 3835, -5934, 2472, -11036, -503, 10395, 4878, -3146, -5843, 970, -4950, 2153, -20133, 1777, -13400, 11747, -14577, 8367, 17787, 1691, 1908, 11126, -2085, -27648, -23068, 26570, -12798, 17508, 11585, 4741, -11010, -1709, -12634, 9298, 4168, -788, -8150, -12773, -6047, 3027, -10491, -9602, 4140, -2659, 4759, -6425, 17640, 6989, -5539, 5704, -1080, -1718, 287, 1871, -7205, 1761, 4627, -7524, 5212, 7166, 10114, 4948, -5093, 19647, -2554, 5968, -8630, 11698, 2040, 7273, 3247, -16375, 14360, 8166, -14325, 19629, 7050, -11242, 2828, -10425, -11540, -1643, 12952, -5876, 9431, -11475, 1888, 5170, -7631, -6234, -1728, 492, 7298, 3798, 7424, 3185, 10341, 8310, 3381, 10826, 2766, -8457, 10415, -6655, -17869, 4484, 6540, 6493, 1317, 9702, 7360, -5375, 3089, -5230, -3770, -7599, -9220, -2069, 5645, 7082, 13884, -1516, -54, -5342, 9803, 1628, 15603, -4166, 10241, 237, -6179, 514, -16012, 241, 7539, -825, -1452, -12224, 4165, -4302, -85, -736, -3112, 3732, -12367, 1521, -6712, 4935, 105, -2326, 7891, -7607, 438, 8957, 15160, 4274, 5296, 9875, 957, 7763, -6123, -4522, 386, 3298, -6547, -13666, -10239, 15393, 13106, -5644, -1521, 12762, 26170, -6809, -12146, 533, 13356, -3128, 773, 11426, -2609, -18419, 10643, 2423, -2287, -896, 1298, 10565, 6773, 7085, 12090, -2150, 10840, -21251, -8713, 2341, 16914, 2722, 5756, 897, -16518, -3716, 10011, -7304, 9797, -1988, -4572, 8626, -907, 8614, -19414, -5684, -5729, 5976, 12234, 9834, 5499, -1514, -1108, 13915, -2326, 6032, 2401, -126, 3317, 13896, 2206, -3012, 1280, 290, -5814, -4565, 4416, -8491, 7247, -1125, 10790, 1652, 3159, 14049, 12455, -1738, -7291, 9159, 1659, 7847, 6215, 4583, -2943, -5613, 11184, 802, 9737, 17963, -5787, -6019, -10412, -2138, -4148, 10682, 6505, 9502, 6665, -201, 20510, 2170, -3759, 5899, 14419, 5701, 10885, 5687, 7063, 12297, -1135, 7981, -4569, -47, -2830, -10399, -4673, 7460, 7069, -2702, 212, -4644, -8994, 2796, 1869, 8387, -2801, 10074, 8550, -15696, -1042, 5685, -16341, -19062, 10200, 8723, 9311, 4749, -4198, -13446, 5714, -14956, 2930, -12111, -4966, -7184, 13001, -7842, 8845, 13656, 4844, -11448, 8582, -91, -51, 2674, 6723, 19878, -1513, -11420, -2704, -6866, 2253, -2435, 11687, 6976, 2342, 17002, -8743, -7201, 17783, 5694, -4957, 3333, 851, 7667, -14101, 1504, 4816, -5816, -936, -8179, 2409, -13965, 7367, -1153, -18078, 2777, 9414, 4042, -5232, 3613, 7658, 2403, 9150, -28, 1707, 18931, -13687, -7589, -2796, 1973, 5779, -58, 7962, 13243, -218, -5243, -4735, -829, 15673, 372, -7846, -6948, 8175, 11582, 21381, 8745, 13423, 10254, -3393, -1788, 6899, 21362, 4155, -2716, -10389, -1601, -449, 17264, -4548, 4285, 3875, 7716, 9950, 2317, 3515, -3260, -8839, 2826, 6030, 8329, -105, -1052, 6161, -5449, -791, -8204, 5980, 9565, 5099, -4152, -1422, -2744, -711, 6261, -5287, 1179, -8412, -10527, -3700, 9906, 1431, 2025, 3970, 4758, 6574, 3902, 4276, 3622, 5007, -10815, 6302, 7126, 507, -1809, -2762, 4190, 10137, 9967, 1614, 1081, 1083, 17655, -58, 56, -3141, 726, -8084, 11499, -6861, -1226, 5700, 3342, 9097, -2596, -6373, 1360, -5351, 1257, 6835, -3553, 72, -9631, -15987, -8799, -4701, 962, 9116, -6702, 5012, 11534, };
const TfArray<1, int> tensor_dimension6 = { 1, { 1000 } };
const TfArray<1000, float> quant6_scale = { 1000, { 0.00012137424346292391, 0.00010327446943847463, 7.6551739766728133e-05, 9.2859394499100745e-05, 8.955445809988305e-05, 0.00011318319593556225, 0.00011490010365378112, 9.360019612358883e-05, 0.00010087057307828218, 0.00013407216465566307, 0.00010976308112731203, 0.00013327752822078764, 0.00010802286124089733, 0.0001046386532834731, 0.0001271582004847005, 0.00010119783109985292, 0.00011104013537988067, 0.00012237996270414442, 0.00013294212112668902, 0.00010910586570389569, 0.00010851248225662857, 0.00010549510625423864, 0.00011301314953016117, 0.00011757013271562755, 0.00010799382289405912, 8.8119748397730291e-05, 9.1927700850646943e-05, 8.5560888692270964e-05, 0.00011066298611694947, 0.00011383972741896287, 0.00012093735858798027, 0.00011739758338080719, 9.787627641344443e-05, 0.0001269572094315663, 8.8323482486885041e-05, 9.6907191618811339e-05, 0.00010598236258374527, 0.00011296543380012736, 8.2048150943592191e-05, 9.0383386122994125e-05, 9.1929628979414701e-05, 9.6481424407102168e-05, 8.9470981038175523e-05, 0.00010305018804501742, 9.9819859315175563e-05, 8.9054257841780782e-05, 8.5944091551937163e-05, 9.3129172455519438e-05, 8.4502600657287985e-05, 8.1646423495840281e-05, 8.0759913544170558e-05, 0.00010711260256357491, 0.00012264022370800376, 0.0001167829759651795, 0.00010632965859258547, 0.00012133664858993143, 0.0001337814173894003, 9.7731041023507714e-05, 8.7556414655409753e-05, 6.8875007855240256e-05, 8.5676154412794858e-05, 9.3543254479300231e-05, 7.9580619058106095e-05, 9.6787807706277817e-05, 9.1326597612351179e-05, 9.877546108327806e-05, 7.6682452345266938e-05, 7.7059448813088238e-05, 8.7381318735424429e-05, 0.00014373568410519511, 9.5283350674435496e-05, 9.6922994998749346e-05, 0.00011138639820273966, 9.2553040303755552e-05, 9.2421141744125634e-05, 0.00010263910371577367, 0.00011141471622977406, 0.00010153374023502693, 8.3391758380457759e-05, 0.0001013340224744752, 8.515207446180284e-05, 0.00011359865311533213, 7.3302064265590161e-05, 8.8444256107322872e-05, 0.00013992578897159547, 9.7185038612224162e-05, 0.00010473064321558923, 0.00010014073632191867, 0.00013213894271757454, 0.00013300855061970651, 0.00011003567487932742, 0.00011213320249225944, 0.00010815697896759957, 0.00012585936929099262, 0.00010011646372731775, 0.00010057837062049657, 0.0001287027116632089, 0.00011482585250632837, 9.855929238256067e-05, 0.00014722805644851178, 0.00013486019452102482, 9.2274807684589177e-05, 9.5863179012667388e-05, 9.9625023722182959e-05, 8.7603810243308544e-05, 9.6853778813965619e-05, 8.4817198512610048e-05, 0.00012336882355157286, 0.00010638395906426013, 0.00011537503451108932, 0.00012009857164230198, 8.684735803399235e-05, 7.4301540735177696e-05, 8.0767124018166214e-05, 9.575721196597442e-05, 0.00011300297774141654, 8.4407380199991167e-05, 8.6111249402165413e-05, 0.00010965603723889217, 7.9122197348624468e-05, 0.00013516386388801038, 0.00012233191228006035, 9.7684715001378208e-05, 0.00012293027248233557, 9.0870402345899493e-05, 0.00010042522626463324, 9.6233474323526025e-05, 0.00012953464465681463, 0.00014130253111943603, 9.6980438684113324e-05, 0.0001073115345207043, 0.00012810774205718189, 0.00011374755558790639, 0.00010394896526122466, 0.00012649514246731997, 0.00010401879262644798, 0.00011779589840443805, 0.00013135879999026656, 8.5400861280504614e-05, 9.5336064987350255e-05, 0.00010335087426938117, 0.00011544254084583372, 9.8891447123605758e-05, 0.00013335679250303656, 0.00011339466436766088, 0.0001290878135478124, 9.7386597190052271e-05, 9.176859020953998e-05, 9.2120797489769757e-05, 9.9228134786244482e-05, 7.7536256867460907e-05, 9.7038180683739483e-05, 0.00011259470920776948, 0.00011238156730541959, 0.00011563245789147913, 0.00011301915219519287, 0.00012422591680660844, 0.00011352048750268295, 0.00011677396105369553, 0.00011491886107251048, 0.00011658324365271255, 0.00011506926966831088, 0.00013391082757152617, 0.0001250282657565549, 9.7332253062631935e-05, 0.00012666679685935378, 0.00011515826918184757, 0.00011835842451546341, 0.00011614678805926815, 8.6464846390299499e-05, 9.8768228781409562e-05, 0.00011886805441463366, 0.00010117814235854894, 0.00011031010944861919, 0.00011244331835769117, 0.00011927560262847692, 0.00011905368592124432, 8.2090584328398108e-05, 0.00011032398469978943, 0.0001112001045839861, 0.00012144654465373605, 9.6016046882141382e-05, 0.00010684413427952677, 9.2162794317118824e-05, 0.00010954105528071523, 0.00010210629989160225, 8.4041595982853323e-05, 0.00010954165190923959, 8.2949904026463628e-05, 0.00011417479254305363, 9.9397126177791506e-05, 0.00011363399244146422, 9.2502035840880126e-05, 9.5375595265068114e-05, 0.00012040317233186215, 0.00011199812433915213, 8.6713822383899242e-05, 9.7574338724371046e-05, 0.00010881832713494077, 0.000100077195384074, 0.0001427777751814574, 0.00012151471310062334, 8.3589780842885375e-05, 0.0001140475069405511, 0.0001201031991513446, 7.8791417763568461e-05, 0.000107646977994591, 0.00011187978088855743, 0.00011417284986237064, 8.2111793744843453e-05, 9.7978816484101117e-05, 0.00010936214675894007, 8.6702857515774667e-05, 0.00010196586663369089, 0.00010909877892117947, 0.0001109981894842349, 0.00010659673716872931, 9.1618167061824352e-05, 0.00011279125465080142, 0.00012389506446197629, 0.0001007697283057496, 0.00011986693425569683, 8.7422624346800148e-05, 7.7774195233359933e-05, 9.3860129709355533e-05, 0.00010569709411356598, 0.00010671451309463009, 0.00011400673975003883, 9.7789532446768135e-05, 0.00011554778029676527, 0.00010873119026655331, 9.874182433122769e-05, 0.00010748716158559546, 8.3490187535062432e-05, 0.00010439135803608224, 0.00010539861978031695, 0.0001411224075127393, 0.00012401898857206106, 0.00010233298962702975, 9.9657474493142217e-05, 0.00010876736632781103, 0.00010766994091682136, 0.00011809890565928072, 0.00013009275426156819, 0.00012099817831767723, 0.00010975555778713897, 0.00013418527669273317, 0.00011268694652244449, 9.6958407084457576e-05, 9.8674470791593194e-05, 0.00010501848737476394, 9.6148396551143378e-05, 0.00010650394688127562, 0.00012038771092193201, 0.00011749470286304131, 0.00013871882401872426, 8.9615343313198537e-05, 9.0811365225818008e-05, 9.034614049596712e-05, 9.631705324864015e-05, 9.5321513072121888e-05, 0.00010062880028272048, 0.00011130570783279836, 7.6189753599464893e-05, 8.8337052147835493e-05, 0.00010321250010747463, 0.00011755881132557988, 0.00010324105096515268, 0.00011371725122444332, 0.00010361393651692197, 9.1110479843337089e-05, 8.1129554018843919e-05, 8.2106496847700328e-05, 8.6488202214241028e-05, 8.9511515398044139e-05, 0.00016113698075059801, 0.00012290787708479911, 8.9590554125607014e-05, 0.00010183484118897468, 8.6522093624807894e-05, 8.1168633187189698e-05, 9.0322268079034984e-05, 9.8649186838883907e-05, 0.00011580430873436853, 9.594433504389599e-05, 9.8044380138162524e-05, 0.00011222130706300959, 0.00010151084279641509, 0.00011238589650020003, 8.8724089437164366e-05, 0.00011084106517955661, 0.00011488387099234387, 0.00011256648576818407, 0.0001186387671623379, 8.2185564679093659e-05, 7.6303040259517729e-05, 0.00010192515037488192, 0.00011162792361574247, 8.2312042650301009e-05, 0.00010788873623823747, 0.00012911410885863006, 0.00010356688289903104, 0.00012654277088586241, 0.00010644111898727715, 0.00010701676364988089, 9.7116215329151601e-05, 8.3879873272962868e-05, 0.00011729372636182234, 9.8128606623504311e-05, 9.2685848358087242e-05, 6.7339540692046285e-05, 8.2940285210497677e-05, 8.9597291662357748e-05, 6.9487847213167697e-05, 9.5087576482910663e-05, 9.0694782556965947e-05, 7.9658522736281157e-05, 0.00011647057544905692, 0.00011215443373657763, 0.00011882792023243383, 0.00012809649342671037, 0.00012123122724005952, 0.00010391822434030473, 0.00011217447899980471, 0.00013737304834648967, 0.00013069095439277589, 0.00010783706238726154, 0.00010324345203116536, 0.00010895261220866814, 8.9085391664411873e-05, 8.1071193562820554e-05, 0.00010694070806493983, 0.0001263706071767956, 7.5087547884322703e-05, 9.9901320936623961e-05, 0.0001093438986572437, 8.4007311670575291e-05, 9.701558155938983e-05, 7.131444726837799e-05, 9.3489921709988266e-05, 8.285209332825616e-05, 6.971557013457641e-05, 7.3569732194300741e-05, 7.321421435335651e-05, 9.0102279500570148e-05, 0.00010078625928144902, 9.9076132755726576e-05, 9.6950978331733495e-05, 8.4590399637818336e-05, 0.00010316492989659309, 9.8021395388059318e-05, 0.00012773176422342658, 0.00011162890587002039, 0.00011182547314092517, 0.00010366726201027632, 0.00010404056956758723, 8.4605999290943146e-05, 9.0959460067097098e-05, 9.1588008217513561e-05, 8.4002313087694347e-05, 9.0190624177921563e-05, 8.59333376865834e-05, 0.00010678060789359733, 8.4722167230211198e-05, 0.00012268390855751932, 0.00010760477016447112, 9.5315430371556431e-05, 0.00010937562183244154, 0.000127396997413598, 0.00010815262066898867, 9.8354910733178258e-05, 7.1288312028627843e-05, 0.00012221393990330398, 0.00011392164014978334, 0.00011377441114746034, 8.9132248831447214e-05, 0.00011585865286178887, 8.2808190200012177e-05, 0.00010129206930287182, 9.0040884970221668e-05, 8.2556864072103053e-05, 0.00010368149378336966, 9.5829433121252805e-05, 9.1483372671063989e-05, 9.898347343550995e-05, 0.00010842463962035254, 0.00011264016211498529, 0.00011196221021236852, 0.00010666421439964324, 0.00013804607442580163, 9.7500778792891651e-05, 0.00013328177738003433, 0.00010463233775226399, 0.00011533032375155017, 0.00016271624190267175, 0.00012123183842049912, 0.00012402923312038183, 0.00011288461246294901, 8.8389220763929188e-05, 9.2670379672199488e-05, 0.00011429506412241608, 0.00011129854101454839, 0.00014315593580249697, 0.00011213864490855485, 0.00010495728201931342, 9.0160327090416104e-05, 7.889790867920965e-05, 0.00010513069719308987, 8.7273350800387561e-05, 8.4298917499836534e-05, 0.00012538667942862958, 0.00010188708256464452, 8.1747850344981998e-05, 0.00011827785783680156, 7.7681208495050669e-05, 8.978215919341892e-05, 0.0001444228837499395, 8.4203958977013826e-05, 0.00010133625619346276, 7.7512930147349834e-05, 0.00011322016507619992, 6.870389188406989e-05, 8.4453720774035901e-05, 8.189801883418113e-05, 0.0001140791064244695, 0.00010778867726912722, 7.8862314694561064e-05, 0.0001188106180052273, 6.99855518178083e-05, 0.00016705394955351949, 0.00018143482157029212, 0.00014505337458103895, 0.00010461935744388029, 0.00011262173939030617, 7.9653531429357827e-05, 9.2462280008476228e-05, 8.126836473820731e-05, 0.00012900447472929955, 7.7695563959423453e-05, 0.00012735046038869768, 0.00010339668369852006, 9.7866184660233557e-05, 9.0757945145014673e-05, 0.00011356818140484393, 0.00015079583681654185, 0.00014318671310320497, 8.9077097072731704e-05, 8.8702596258372068e-05, 0.00010593754996079952, 0.00010386590292910114, 0.00013416566071100533, 7.875489245634526e-05, 7.4820673034992069e-05, 9.6913099696394056e-05, 0.00010012698476202786, 0.00013283213775139302, 0.00010757756535895169, 0.00011504999565659091, 0.00012514909030869603, 0.00012031388178002089, 9.4856950454413891e-05, 8.7440690549556166e-05, 9.3030372227076441e-05, 7.2161303251050413e-05, 6.1717801145277917e-05, 0.00010100158397108316, 0.00010444254439789802, 0.00010283455776516348, 9.6948315331246704e-05, 9.1405163402669132e-05, 0.0001103966569644399, 0.00010265121090924367, 0.00010595069034025073, 7.8833210864104331e-05, 0.00011235701822442934, 9.5841271104291081e-05, 0.00013807430514134467, 0.00010515975009184331, 8.228169463109225e-05, 8.4215127571951598e-05, 8.1552323536016047e-05, 7.8614786616526544e-05, 7.5291209213901311e-05, 9.9110278824809939e-05, 0.00012798646639566869, 7.5504649430513382e-05, 0.00016672383935656399, 9.5827133918646723e-05, 8.7975859059952199e-05, 7.1321519499178976e-05, 7.7829754445701838e-05, 9.0244087914470583e-05, 0.0001003547222353518, 0.0001021257703541778, 9.2587906692642719e-05, 8.8747437985148281e-05, 0.00011076509690610692, 9.6881653007585555e-05, 0.00011545791494427249, 0.0001124917616834864, 0.00011387364793336019, 7.2440954681951553e-05, 0.00010674821533029899, 9.0576737420633435e-05, 8.8383028923999518e-05, 0.00011363888916093856, 7.3307608545292169e-05, 7.0746318669989705e-05, 0.00015350186731666327, 0.00011233499390073121, 0.00012386382149998099, 8.1510035670362413e-05, 9.3112786998972297e-05, 0.00010940752690657973, 0.00012134965800214559, 0.00010749487410066649, 9.0482411906123161e-05, 8.1918893556576222e-05, 8.8650645921006799e-05, 6.9302026531659067e-05, 0.00011030650784960017, 0.00011202439054613933, 0.00010751661466201767, 7.3801544203888625e-05, 9.1684494691435248e-05, 0.00010919652413576841, 6.4573803683742881e-05, 7.8188473707996309e-05, 0.00010517332702875137, 0.0001105360352084972, 0.00010684598237276077, 0.00010649402975104749, 0.00012393220094963908, 0.0001149143572547473, 9.9160191894043237e-05, 8.2341794040985405e-05, 0.00011453830666141585, 0.00010326835763407871, 8.813218300929293e-05, 0.00010713113442761824, 0.00013095805479679257, 7.0147383667062968e-05, 9.1758774942718446e-05, 0.00010138944344362244, 9.7619493317324668e-05, 7.7957811299711466e-05, 0.00018134551646653563, 0.00011268357775406912, 8.9345936430618167e-05, 7.5437688792590052e-05, 9.8817108664661646e-05, 9.6211333584506065e-05, 0.00011670768435578793, 7.6456082751974463e-05, 0.00013046777166891843, 8.1006779510062188e-05, 0.00010024249058915302, 0.00010611538891680539, 8.6629072029609233e-05, 0.0001102240858017467, 0.00011644684855127707, 8.4273946413304657e-05, 8.6902757175266743e-05, 0.00012499715376179665, 0.00014912460756022483, 0.000127141218399629, 0.00010120268416358158, 9.2784197477158159e-05, 8.7260923464782536e-05, 9.2684305855073035e-05, 8.8861699623521417e-05, 8.655977580929175e-05, 0.00011495478975120932, 0.0001117818319471553, 0.00011229255323996767, 0.0001337440189672634, 0.00012587737001013011, 9.6137409855145961e-05, 9.1252979473210871e-05, 0.00011293510033283383, 0.00013632135232910514, 9.7815740446094424e-05, 9.6462339570280164e-05, 0.00011968971375608817, 0.00012172781862318516, 9.7708398243412375e-05, 8.9682413090486079e-05, 8.3527760580182076e-05, 0.00010519116767682135, 0.00012047337077092379, 9.0029971033800393e-05, 9.1465684818103909e-05, 8.7006104877218604e-05, 0.00010178302181884646, 0.00010434382420498878, 9.6003350336104631e-05, 8.9018743892665952e-05, 0.00011025394633179531, 0.00010645079601090401, 6.3784304074943066e-05, 7.0741312811151147e-05, 9.779051470104605e-05, 0.00016030578990466893, 7.1869799285195768e-05, 8.7850094132591039e-05, 8.7757165601942688e-05, 7.1490467234980315e-05, 0.00012358831008896232, 0.00012339011300355196, 9.2302441771607846e-05, 0.00010371379175921902, 0.00012464163592085242, 0.00013694494555238634, 6.7958950239699334e-05, 8.3180886576883495e-05, 0.00012818367395084351, 9.6172509074676782e-05, 0.00010916512837866321, 8.3293693023733795e-05, 0.0001077908746083267, 6.3169500208459795e-05, 0.00012094284466002136, 9.3340800958685577e-05, 6.2982056988403201e-05, 9.0431007265578955e-05, 0.00011691171675920486, 7.3775590863078833e-05, 9.1843103291466832e-05, 0.00010053364530904219, 0.00016188957670237869, 0.00012484684702940285, 8.0766600149217993e-05, 8.9955639850813895e-05, 7.6202944910619408e-05, 8.3636732597369701e-05, 7.9896075476426631e-05, 9.1786670964211226e-05, 8.0047611845657229e-05, 0.0001285994949284941, 0.00014119948900770396, 0.00010062281944556162, 0.00010583204857539386, 0.00014734100841451436, 0.00010442671191412956, 6.0973554354859516e-05, 8.8888606114778668e-05, 0.0001262295845663175, 0.00010602889960864559, 8.2290265709161758e-05, 8.3955601439811289e-05, 7.2884751716628671e-05, 7.7756027167197317e-05, 0.00010097886843141168, 0.00011678186274366453, 9.265133849112317e-05, 0.00012890594371128827, 8.8554108515381813e-05, 0.00013280028360895813, 8.9978719188366085e-05, 0.00011371273285476491, 8.60786676639691e-05, 0.00010204662976320833, 7.4396506533958018e-05, 0.00010600320092635229, 8.7601540144532919e-05, 0.00011874945630552247, 9.136735025094822e-05, 0.0001599346287548542, 0.00011011146125383675, 0.00012069554213667288, 0.00012183758371975273, 0.00011592517694225535, 0.00010969736467814073, 0.00010623104026308283, 8.9239765657112002e-05, 0.00011040176468668506, 8.7982836703304201e-05, 8.1162041169591248e-05, 6.9566798629239202e-05, 0.00010604545241221786, 0.00013756398402620107, 7.6973497925791889e-05, 0.0001034107554005459, 0.00010595219646347687, 7.7396623964887112e-05, 0.00010698272672016174, 7.4479568866081536e-05, 9.1271635028533638e-05, 0.0001082199887605384, 9.6815194410737604e-05, 8.4307859651744366e-05, 7.3154951678588986e-05, 5.7177909184247255e-05, 9.690428851172328e-05, 0.00013650601613335311, 9.8548654932528734e-05, 6.4365194702986628e-05, 7.2563925641588867e-05, 0.00010438464232720435, 0.00010354508413001895, 7.6698830525856465e-05, 0.00012715626507997513, 0.00016639658133499324, 7.9358884249813855e-05, 9.8158161563333124e-05, 0.00010608095180941746, 7.2037488280329853e-05, 8.6595420725643635e-05, 9.6876770840026438e-05, 7.5504336564335972e-05, 6.630268762819469e-05, 6.1956590798217803e-05, 0.00011008603178197518, 6.6694759880192578e-05, 9.7815529443323612e-05, 0.00010739652498159558, 0.00010452417336637154, 9.2710761236958206e-05, 0.00011422926763771102, 7.3321643867529929e-05, 8.3037528384011239e-05, 0.00010036792082246393, 0.00012740590318571776, 8.1018595665227622e-05, 0.00010955350444419309, 0.00013891331036575139, 8.1480982771608979e-05, 0.00012734161282423884, 6.8837995058856905e-05, 9.6510790172033012e-05, 7.8009026765357703e-05, 8.5733867308590561e-05, 9.6461888460908085e-05, 7.3336130299139768e-05, 9.3736984126735479e-05, 0.00012183208309579641, 0.00013576974743045866, 9.2095564468763769e-05, 8.5681742348242551e-05, 0.00010614271741360426, 8.6601801740471274e-05, 0.00010101986845256761, 8.5440973634831607e-05, 8.4623359725810587e-05, 0.00013345383922569454, 7.8268931247293949e-05, 8.6775260569993407e-05, 0.00011037335207220167, 0.00010633149213390425, 8.4983781562186778e-05, 0.00014015684428159148, 9.7713520517572761e-05, 0.00011218609870411456, 0.0001304690376855433, 8.3442922914400697e-05, 0.0001060247523128055, 7.6813288615085185e-05, 9.9647790193557739e-05, 8.5043961007613689e-05, 8.9085238869301975e-05, 0.00010942441440420225, 8.5423991549760103e-05, 8.5411877080332488e-05, 9.7049109172075987e-05, 0.00011610280489549041, 8.91535310074687e-05, 0.00012373004574328661, 9.2109556135255843e-05, 0.000137318842462264, 7.8558543464168906e-05, 0.00010231028863927349, 7.8132761700544506e-05, 0.00010251591447740793, 8.4903309470973909e-05, 8.5751096776220948e-05, 0.00014004012336954474, 9.7409356385469437e-05, 8.4356623119674623e-05, 0.00011052989430027083, 0.0001215834854519926, 0.00011992352665401995, 8.2785831182263792e-05, 0.00012216749018989503, 8.069779141806066e-05, 0.00010007084347307682, 0.00010056066093966365, 0.00010130248119821772, 0.00010525791731197387, 9.5075993158388883e-05, 9.0789741079788655e-05, 9.3489965365733951e-05, 0.00010659655526978895, 7.9627679951954633e-05, 0.00011337349133100361, 7.3699695349205285e-05, 0.0001123719266615808, 9.3444876256398857e-05, 6.8792847741860896e-05, 9.8097400041297078e-05, 6.617353210458532e-05, 0.00010815370478667319, 0.00012038967543048784, 0.00010553332685958594, 0.00011381084186723456, 7.9028293839655817e-05, 0.0001169102979474701, 7.9016317613422871e-05, 0.00010116846533492208, 0.00017983189900405705, 0.000106618128484115, 0.00016175102791748941, 9.3461057986132801e-05, 9.1437781520653516e-05, 6.9523026468232274e-05, 0.00012681476073339581, 7.6011994678992778e-05, 0.00010183294943999499, 0.00012321799295023084, 0.00013199912791606039, 7.9236175224650651e-05, 0.0001069771678885445, 8.2153594121336937e-05, 0.00011276391160208732, 7.8759323514532298e-05, 0.000123700185213238, 0.00011322610225761309, 9.212624718202278e-05, 6.9778863689862192e-05, 8.6165913671720773e-05, 9.2937800218351185e-05, 7.7945129305589944e-05, 9.5791139756329358e-05, 0.00012428298941813409, 0.00013719903654418886, 0.00010606623982312158, 9.5958253950811923e-05, 9.3479749921243638e-05, 8.8834000052884221e-05, 0.00011329853441566229, 8.430421439697966e-05, 8.5227540694177151e-05, 8.8205240899696946e-05, 0.00020095925719942898, 0.00010616717918310314, 8.7288208305835724e-05, 9.0220572019461542e-05, 0.0001239562698174268, 9.1524780145846307e-05, 7.1711168857291341e-05, 0.00013284865417517722, 8.7236934632528573e-05, 0.00010073652811115608, 0.00010382259642938152, 0.00013051080168224871, 8.6753323557786644e-05, 7.6690172136295587e-05, 8.9596891484688967e-05, 0.00010814250708790496, 9.3258982815314084e-05, 7.3505805630702525e-05, 0.00010145792475668713, 8.7238011474255472e-05, 9.2125053924974054e-05, 9.1933274234179407e-05, 7.7699041867163032e-05, 0.00011050971806980669, 8.6515450675506145e-05, 9.9933633464388549e-05, 6.6189400968141854e-05, 9.3314018158707768e-05, 0.00012503439211286604, 0.00013027095701545477, 7.9045821621548384e-05, 0.00013376606511883438, 0.00011405871919123456, 9.9015865998808295e-05, 9.2926828074268997e-05, 9.8798358521889895e-05, 0.00013904552906751633, 0.00010283239680575207, 0.00011544580775080249, 0.00012657731713261455, 7.0673529990017414e-05, 7.3808703746180981e-05, 0.00013332100934349, 8.9349414338357747e-05, 0.00010222091805189848, 9.2547561507672071e-05, 0.00013267404574435204, 0.00020099223183933645, 0.00015179476758930832, 8.785863610683009e-05, 7.8050368756521493e-05, 8.4738341683987528e-05, 0.00010647126327967271, 9.8164469818584621e-05, 7.6187905506230891e-05, 8.7161410192493349e-05, 7.5200805440545082e-05, 9.9428107205312699e-05, 9.7042830020654947e-05, 9.3536647909786552e-05, 0.00010609448509057984, 0.00011425319826230407, 6.2206177972257137e-05, 0.00011464286217233166, 0.00012431073992047459, 8.4322651673574001e-05, 0.00012616567255463451, 0.00013542236411012709, 7.9588608059566468e-05, 7.4901894549839199e-05, 9.6365743956994265e-05, 8.146644540829584e-05, 0.00010951961303362623, 0.00014748776447959244, 0.00010437909804750234, 7.4674782808870077e-05, 0.00014770528650842607, 9.2730784672312438e-05, 0.00012812527711503208, 0.00011428627476561815, 8.8449807662982494e-05, 9.6248637419193983e-05, 7.9371740866918117e-05, 0.00010147098510060459, 0.00012191100540803745, 0.00010189349268330261, 0.00012429236085154116, 0.00011366316903149709, 0.00010278425907017663, 0.00011586752953007817, 0.00010827820369740948, 0.00012928259093314409, 0.00012735385098494589, 8.3385406469460577e-05, 0.00011905087012564763, 0.00013283989392220974, 0.0001155250211013481, 0.00013630036846734583, 0.00010283417213940993, 0.00014482087863143533, 0.00010144025145564228, 0.00010949641728075221, 9.9253549706190825e-05, 0.00011737427121261135, 8.6563020886387676e-05, 9.9831348052248359e-05, 0.00011579666170291603, 0.00010109428694704548, 0.00010557585483184084, 0.00010660383122740313, 0.000148921346408315, 0.00012342227273620665, 0.0001031590873026289, 0.00013832857075612992, 0.00012222115765325725, 0.00011838872887892649, 7.7856078860349953e-05, 0.00010754085087683052, 0.00014789424312766641, 7.6808944868389517e-05, 0.00011146003816975281, 0.0001040126517182216, 0.00012283527757972479, 0.00011401116353226826, 8.3255668869242072e-05, 9.7731579444371164e-05, 0.00012507714563980699, 0.00010791391832754016, 9.7425385320093483e-05, 9.3465772806666791e-05, 7.737868872936815e-05, 0.00012347842857707292, 0.00010974070028169081, 9.8555035947356373e-05, 9.1856774815823883e-05, 8.3740618720185012e-05, 7.8784403740428388e-05, 9.7557720437180251e-05, 0.0001010322303045541, 0.00011800350330304354, 0.00010373001714469865, 0.00011639962031040341, 0.00010200190445175394, 8.9561268396209925e-05, 0.00012675485049840063, 0.00013130379375070333, 0.00010428694804431871, 9.0355657448526472e-05, 0.00012822066491935402, 0.00010389278031652793, 0.00010093563469126821, 0.00010031586862169206, 0.00011034911585738882, 0.00011377180635463446, 0.00010041552741313353, 0.00010726686741691083, 0.00012021543807350099, 8.4312952822074294e-05, } };
const TfArray<1000, int> quant6_zero = { 1000, { 0,0,0,0,0,0,0,0,0,0,0,0,0,0,0,0,0,0,0,0,0,0,0,0,0,0,0,0,0,0,0,0,0,0,0,0,0,0,0,0,0,0,0,0,0,0,0,0,0,0,0,0,0,0,0,0,0,0,0,0,0,0,0,0,0,0,0,0,0,0,0,0,0,0,0,0,0,0,0,0,0,0,0,0,0,0,0,0,0,0,0,0,0,0,0,0,0,0,0,0,0,0,0,0,0,0,0,0,0,0,0,0,0,0,0,0,0,0,0,0,0,0,0,0,0,0,0,0,0,0,0,0,0,0,0,0,0,0,0,0,0,0,0,0,0,0,0,0,0,0,0,0,0,0,0,0,0,0,0,0,0,0,0,0,0,0,0,0,0,0,0,0,0,0,0,0,0,0,0,0,0,0,0,0,0,0,0,0,0,0,0,0,0,0,0,0,0,0,0,0,0,0,0,0,0,0,0,0,0,0,0,0,0,0,0,0,0,0,0,0,0,0,0,0,0,0,0,0,0,0,0,0,0,0,0,0,0,0,0,0,0,0,0,0,0,0,0,0,0,0,0,0,0,0,0,0,0,0,0,0,0,0,0,0,0,0,0,0,0,0,0,0,0,0,0,0,0,0,0,0,0,0,0,0,0,0,0,0,0,0,0,0,0,0,0,0,0,0,0,0,0,0,0,0,0,0,0,0,0,0,0,0,0,0,0,0,0,0,0,0,0,0,0,0,0,0,0,0,0,0,0,0,0,0,0,0,0,0,0,0,0,0,0,0,0,0,0,0,0,0,0,0,0,0,0,0,0,0,0,0,0,0,0,0,0,0,0,0,0,0,0,0,0,0,0,0,0,0,0,0,0,0,0,0,0,0,0,0,0,0,0,0,0,0,0,0,0,0,0,0,0,0,0,0,0,0,0,0,0,0,0,0,0,0,0,0,0,0,0,0,0,0,0,0,0,0,0,0,0,0,0,0,0,0,0,0,0,0,0,0,0,0,0,0,0,0,0,0,0,0,0,0,0,0,0,0,0,0,0,0,0,0,0,0,0,0,0,0,0,0,0,0,0,0,0,0,0,0,0,0,0,0,0,0,0,0,0,0,0,0,0,0,0,0,0,0,0,0,0,0,0,0,0,0,0,0,0,0,0,0,0,0,0,0,0,0,0,0,0,0,0,0,0,0,0,0,0,0,0,0,0,0,0,0,0,0,0,0,0,0,0,0,0,0,0,0,0,0,0,0,0,0,0,0,0,0,0,0,0,0,0,0,0,0,0,0,0,0,0,0,0,0,0,0,0,0,0,0,0,0,0,0,0,0,0,0,0,0,0,0,0,0,0,0,0,0,0,0,0,0,0,0,0,0,0,0,0,0,0,0,0,0,0,0,0,0,0,0,0,0,0,0,0,0,0,0,0,0,0,0,0,0,0,0,0,0,0,0,0,0,0,0,0,0,0,0,0,0,0,0,0,0,0,0,0,0,0,0,0,0,0,0,0,0,0,0,0,0,0,0,0,0,0,0,0,0,0,0,0,0,0,0,0,0,0,0,0,0,0,0,0,0,0,0,0,0,0,0,0,0,0,0,0,0,0,0,0,0,0,0,0,0,0,0,0,0,0,0,0,0,0,0,0,0,0,0,0,0,0,0,0,0,0,0,0,0,0,0,0,0,0,0,0,0,0,0,0,0,0,0,0,0,0,0,0,0,0,0,0,0,0,0,0,0,0,0,0,0,0,0,0,0,0,0,0,0,0,0,0,0,0,0,0,0,0,0,0,0,0,0,0,0,0,0,0,0,0,0,0,0,0,0,0,0,0,0,0,0,0,0,0,0,0,0,0,0,0,0,0,0,0,0,0,0,0,0,0,0,0,0,0,0,0,0,0,0,0,0,0,0,0,0,0,0,0,0,0,0,0,0,0,0,0,0,0,0,0,0,0,0,0,0,0,0,0,0,0,0,0,0,0,0,0,0,0,0,0,0,0,0,0,0,0,0,0,0,0,0,0,0,0,0,0,0,0,0,0,0,0,0,0,0,0,0,0,0,0,0,0,0,0,0,0,0,0,0,0,0,0,0,0,0,0,0,0,0,0,0,0,0,0,0,0,0,0,0,0,0,0,0,0,0,0,0,0,0,0,0,0,0,0,0,0,0,0,0,0,0,0,0,0,0,0,0,0,0,0,0,0,0,0,0,0,0,0,0,0,0,0,0,0,0,0,0,0,0,0,0,0,0,0,0,0,0,0,0,0,0,0,0 } };
const TfLiteAffineQuantization quant6 = { (TfLiteFloatArray*)&quant6_scale, (TfLiteIntArray*)&quant6_zero, 0 };
const ALIGN(8) int8_t tensor_data7[1000*1*1*256] = { 
  /* [0][0][][] */ 20,-25,-25,-6,23,44,-46,7,0,-23,-35,21,-65,0,-25,-2,-29,9,13,-23,-28,21,-15,-8,18,-38,-33,-16,12,-34,-2,33,3,17,-44,-36,-43,24,10,-63,24,-6,-17,12,-3,-13,84,-4,16,-20,-11,-16,-11,-11,32,-26,35,15,-8,-15,-22,-42,18,44,77,-12,-4,47,48,37,-40,-1,29,-11,-60,121,-30,17,-20,3,-6,23,-6,2,5,-28,-22,-23,-26,-3,-14,-16,40,-14,-4,-42,-25,3,7,-49,-1,-18,-4,-16,-48,13,8,-19,-24,15,24,-36,-23,-36,122,109,-36,10,-3,-11,-26,-25,50,-32,17,1,-37,-14,15,24,-7,-1,14,-27,44,30,4,-6,-6,-11,-3,2,17,34,18,1,-22,-28,-5,0,37,1,-6,-3,-11,-1,4,108,-18,-21,-21,-30,-8,36,-9,-27,-10,-6,-11,-29,-20,11,53,-21,-21,17,-9,78,-24,-22,-13,2,-1,-18,5,-1,-24,18,14,-18,40,-59,-20,-26,-24,40,-6,-13,9,-32,-26,-36,-14,9,-5,-16,-24,46,13,0,-19,12,28,23,-40,59,-12,9,-20,8,29,-1,40,43,-43,-2,-19,-29,-16,-8,-9,-4,62,-13,15,-24,18,-1,-19,-28,-11,127,-47,-18,24,0,24,-5,34,31,22,15,-20,-3,26,-24, 
  /* [1][0][][] */ 7,22,-14,-8,-26,6,60,-51,106,-23,-16,-26,-29,25,-25,-17,5,9,8,-49,-6,-20,-67,-97,12,44,-35,25,9,-35,26,-4,-24,9,-16,-13,-22,44,34,-41,-16,-11,6,-18,3,-30,1,-7,-8,-25,1,-18,-7,14,1,-5,11,12,15,-41,-31,57,-16,19,-3,-20,-3,13,2,-27,-35,-40,33,-7,-26,10,-13,32,-19,-28,65,14,-7,56,9,25,-18,-46,4,-12,31,-13,-17,42,-6,-5,-11,-5,-12,19,-14,-28,-3,31,-24,5,25,-28,-20,-31,-23,-21,-44,18,-4,-13,7,-9,101,-13,-6,-6,-16,68,25,-4,-56,36,-38,-14,6,-11,-9,21,40,5,-33,-16,-2,-5,-7,-5,-46,-65,18,127,56,-9,-13,-25,-43,-28,8,6,15,6,23,-1,51,18,-18,-52,45,-24,11,-28,-10,-3,-5,-27,-47,-1,61,1,24,36,60,65,-26,-10,-11,6,19,-13,-34,-14,-69,-8,6,5,39,-30,-39,3,-21,9,-2,6,-7,11,-3,7,-57,7,0,-39,5,-7,13,-26,-11,-13,-30,-10,2,114,-16,16,-13,98,26,-11,3,30,-30,33,-43,-12,-52,-6,-10,15,59,-26,-6,4,23,54,19,35,-7,118,-43,-37,17,3,-3,-18,32,18,-45,-40,-23,-1,27,-11, 
  /* [2][0][][] */ 11,39,26,-15,-18,-12,56,103,-19,-50,-43,3,28,41,-19,-39,-18,102,70,-11,-45,1,46,-15,-55,-10,-21,8,-19,-9,-41,-56,-49,5,-62,-11,8,99,24,-38,-19,-18,-10,-70,6,20,7,13,80,-66,38,9,-67,22,-45,76,-87,-9,-2,56,11,-35,15,11,54,-22,-27,93,53,37,0,-2,-35,39,-65,21,6,-13,27,-15,18,-20,-37,-18,-16,9,-48,28,-53,-41,-5,12,3,87,-21,-18,-22,-64,18,-37,-27,68,-3,-8,-15,67,2,-30,-6,-5,-42,-56,-38,-6,114,45,14,14,122,-20,-1,-43,-14,4,-48,20,-59,-79,-49,-15,70,127,22,119,53,-51,-43,-120,-21,-15,-25,-47,39,29,-76,-29,60,-14,-38,23,-7,-35,-5,-6,-22,67,-75,13,-12,-59,28,-4,-18,57,-35,-93,-48,-19,54,-49,85,15,-1,85,-33,5,-45,90,-37,3,-7,-14,48,-19,19,10,82,24,95,-19,-18,38,41,-25,-14,-56,-18,-41,-73,-51,-38,-39,3,0,-14,37,-2,-38,-10,-37,1,12,33,-63,9,49,-38,-28,-50,22,79,61,-31,-20,16,16,-24,15,-41,110,83,-1,26,-68,56,24,-7,-46,-11,41,-47,50,-28,12,-42,1,17,-29,-5,-23,-22,70,-9,32,40,45, 
  /* [3][0][][] */ -14,-16,40,1,0,16,37,21,17,-32,-40,-2,105,1,-15,-10,0,-37,47,-20,-7,-1,54,-17,-10,-45,10,-3,-17,-19,6,-45,7,-12,-8,-3,28,71,4,-73,-33,-2,25,-49,3,4,37,-26,64,-11,41,2,-12,16,-3,-30,2,-29,-24,13,-52,11,5,-15,39,-23,-1,54,63,-20,-20,7,-41,-12,-82,45,5,26,-7,30,-29,-13,-8,-53,26,35,-32,95,-54,3,-31,15,-17,9,-38,22,1,-17,22,-4,-6,58,-20,-32,-23,-11,4,-38,-12,-61,5,-16,-28,-32,105,25,-13,-29,70,-27,-3,-13,-19,3,-8,-32,-4,-45,-29,-23,-28,54,9,127,17,-20,-36,-4,-67,-10,-24,-49,9,47,16,-14,29,-36,-55,44,-35,47,-4,-13,-23,73,-41,24,0,-13,33,13,-27,28,-14,-70,-55,0,8,-27,15,22,32,35,-36,23,-18,67,-7,11,-5,-5,48,57,-27,-31,40,33,104,-17,-57,-29,-32,-26,14,-32,-36,-39,-13,-6,-9,20,-11,-24,-4,-25,8,14,-4,-25,-9,59,15,-43,-18,112,-29,-19,-36,11,53,24,-13,-6,24,-36,-28,26,-37,76,51,12,42,18,15,48,-1,28,-32,-29,-7,71,-15,-32,-11,5,2,-22,-26,-72,38,-47,-20,6,37,30, 
  /* [4][0][][] */ -31,19,-23,9,-2,16,25,68,21,-69,-51,2,13,43,-41,34,0,8,55,-8,-29,-27,20,-17,-10,-16,-7,-4,15,-24,61,-38,5,-15,-27,-7,81,33,-25,-45,-55,-19,-16,-22,-11,-31,50,36,-28,-28,64,-3,-15,14,20,13,-10,-32,2,-5,-33,-6,2,3,56,-12,12,63,-34,-18,-24,4,-17,6,-67,6,-16,9,43,37,-7,-17,4,-21,0,0,-41,28,-44,10,8,-27,-1,-31,-12,-34,53,-8,-15,-8,21,54,4,6,-23,-3,24,-47,32,-10,27,-12,-34,-31,83,50,-39,7,48,-27,-3,5,53,-10,-21,-34,-4,-42,4,24,3,86,-21,92,21,14,-15,42,-4,-8,-53,-25,-48,70,6,-35,0,-4,-61,13,-19,-18,24,8,-11,55,13,3,-20,3,-57,-19,-42,1,45,-69,0,-40,87,7,35,-32,-13,-4,-59,-27,12,42,-30,-13,-13,-4,6,19,12,-27,-8,28,75,-29,33,-27,-32,53,3,-58,-23,-13,-2,-33,-47,1,-23,-7,-21,0,-23,-43,-5,-20,40,12,83,-31,-8,127,-18,-18,-2,1,20,23,-38,3,7,-30,-32,49,1,36,-33,18,34,-11,-5,3,-32,-24,-17,37,-6,53,-10,-28,-32,-15,-41,-21,16,-54,-11,-33,-31,-13,70,31, 
  /* [5][0][][] */ -26,33,-1,23,-11,-37,2,44,-37,35,-27,-27,-20,16,-25,34,-32,-19,-16,-37,-22,-18,-13,-19,48,-26,13,20,37,-24,21,-17,13,19,-4,-23,14,20,30,-28,-14,-3,-3,-38,35,0,-8,19,-1,-5,69,78,32,-22,19,-9,16,26,-3,-14,-24,-15,-6,-28,-18,-13,-13,3,1,1,-40,50,42,-32,-5,19,-90,4,-16,-3,-4,63,48,15,-4,1,-18,-27,-25,9,4,-15,0,-31,-17,3,-6,22,-15,10,19,19,20,24,-23,-34,-2,-23,18,45,-15,-10,-41,-6,82,-8,24,-7,23,-29,3,-15,16,-2,24,-6,1,-46,11,7,-56,3,7,127,5,-22,-25,56,59,35,56,-12,-2,57,-15,-34,17,32,-16,-33,-19,14,39,-34,-10,51,-22,17,23,-6,-56,-25,-9,-12,-51,31,-19,-5,0,-15,5,-9,7,-17,-41,-26,-22,17,5,28,16,-21,44,2,-13,4,3,37,-7,16,-20,-8,-41,12,11,12,10,13,-30,23,7,9,-25,6,8,-12,-22,-47,-14,28,-11,-29,0,-22,-47,86,-22,4,-1,-7,-29,48,0,0,-25,28,-38,14,-11,43,-14,20,63,-18,19,-2,17,25,-44,-2,3,50,6,11,1,-2,-13,-30,-5,-12,-5,47,-33,-51,2,41, 
  /* [6][0][][] */ -40,-21,-9,65,-33,-21,-31,40,-19,8,-23,1,-3,7,-17,-12,-43,30,-25,-9,-15,-21,-34,-5,3,-27,-4,-24,-10,-1,-15,-13,8,4,-11,20,-16,3,19,-48,-4,-19,-4,-38,4,-19,-21,23,-24,-31,89,40,5,-20,8,9,-5,31,-19,-30,-24,-3,-4,-10,-2,-3,-6,33,41,28,-20,51,43,-9,-7,-15,-34,14,38,32,-15,-31,26,7,16,19,12,-11,-25,36,-24,-46,6,-10,-1,12,-8,-19,-16,-24,0,11,-57,-12,-15,-4,-16,-22,19,25,-39,-19,-45,1,109,127,29,-13,39,-18,-14,10,9,19,35,-37,-5,-60,-8,-4,-4,18,8,86,13,17,-15,69,8,20,24,1,-12,46,-9,-22,36,34,-24,-44,-4,19,35,-34,16,40,-20,6,32,45,-16,-33,4,5,1,-11,38,-10,-20,-18,-24,17,-9,26,-26,13,-9,-21,-19,16,-4,-12,7,-9,-22,7,27,32,7,23,-26,-35,-23,55,16,-5,-30,-5,-29,19,-20,30,-16,6,-6,-29,-1,-6,11,1,-27,21,-32,-10,-29,73,-13,-1,-14,-8,7,27,-10,-23,12,-17,-43,-26,-17,45,5,10,69,-7,17,34,-25,-16,-61,19,-31,48,30,-16,-27,-59,-12,46,-17,-8,-12,3,-5,-48,36,17, 
  /* [7][0][][] */ 9,20,-17,-2,20,-40,55,-68,-19,7,-18,-28,35,24,-41,-26,9,36,76,-79,-2,-15,-33,-65,-32,22,-4,-31,6,-26,2,54,-36,-36,-41,-70,-2,-5,9,53,15,-22,55,-7,43,-39,0,94,-19,3,-14,8,17,-13,21,10,90,48,-53,7,38,35,-42,-14,7,-9,-25,-41,73,-65,-34,25,89,-16,1,-9,-48,-8,-18,-48,127,-18,24,93,-19,2,52,-28,-28,21,16,22,20,20,49,-3,37,-42,11,58,-10,-1,25,-32,-38,8,-12,-2,1,-19,-26,-15,-14,30,5,-39,-21,-5,-19,29,63,112,14,10,-11,6,-29,10,52,74,-20,68,59,32,-34,-27,-40,19,20,-23,-7,-16,-33,-44,8,3,9,-20,8,29,-75,-5,10,-22,-9,0,-13,14,-27,20,-28,-3,18,50,14,-55,27,96,-7,-31,56,10,-24,-2,23,-51,-15,-30,-85,33,-37,65,-20,90,-9,-22,60,-33,-8,70,66,-24,0,31,-31,-31,50,39,5,-3,-70,-10,-37,14,-12,46,-17,-61,-36,-25,-67,-34,42,39,-48,-33,71,13,23,-31,-19,-26,-35,4,1,-57,-8,-31,-17,43,-2,55,-26,56,37,123,-22,-10,-1,-59,4,15,-26,-15,15,-17,-12,-23,-43,44,19,-1,33,58,-1,-16, 
  /* [8][0][][] */ 39,22,-29,8,-6,-33,1,-37,-17,-5,12,14,39,54,-16,-39,-15,17,33,-64,40,9,-14,-20,-22,32,-7,-23,18,-32,9,68,1,-28,-22,-46,13,-20,-18,31,13,-43,31,-19,42,-13,36,85,-20,-3,-31,-6,29,-27,7,1,65,38,-41,-16,-25,34,-24,-25,-10,17,-16,-42,42,-50,-42,14,101,14,-20,-3,-43,-5,-9,-19,87,-25,-6,58,-28,-16,57,-42,11,-1,7,-10,5,24,33,-24,-3,-18,16,86,-32,-19,11,-33,-29,16,-18,46,18,-5,-47,-8,-28,34,13,-46,11,26,-30,7,12,110,-6,60,42,49,-25,6,102,67,-4,42,84,3,-23,-45,-41,29,20,-28,4,-11,-46,-1,8,-11,11,-29,-24,5,-81,-4,37,-50,-32,-9,-22,26,-29,33,-52,-23,-10,27,40,-33,-3,87,2,-28,46,31,14,-5,25,-24,-5,-7,-52,24,-25,69,24,66,-34,-16,89,-18,-29,21,16,-22,-13,33,-39,-24,5,69,6,31,-10,1,-35,-25,-31,30,-22,-63,-14,-15,-29,19,25,-26,-6,-37,40,22,-24,-23,16,11,-12,-39,29,4,-26,-37,22,37,-43,32,-2,-10,14,127,-8,-2,9,-37,13,15,-24,-29,19,3,-5,-39,-42,20,-9,36,19,-11,-42,29, 
  /* [9][0][][] */ -3,-8,-23,-6,31,-14,9,-26,-7,32,-13,26,2,6,-43,-54,-3,-16,30,-3,-42,7,3,-23,-9,-7,-21,-43,-51,-22,2,16,16,1,-37,8,-9,-12,10,46,2,20,20,-8,49,-8,7,-14,-15,27,0,-5,37,1,4,-5,-26,10,-36,-28,-10,-9,27,-16,-8,17,24,4,27,-5,6,28,-7,51,-31,4,48,-7,-49,-14,12,-21,-6,-25,-14,-20,-19,-3,13,-11,-9,-43,-12,58,36,-37,-50,-10,10,36,-28,-28,30,33,-31,-12,23,-8,25,2,-33,36,-7,73,0,-23,-37,-1,-24,-1,-39,32,10,-4,-10,-5,-10,25,-36,19,-7,-6,9,16,-20,47,25,57,-23,-43,8,-20,-8,-46,-10,-38,-58,14,-6,14,32,70,25,-38,63,14,10,25,27,18,29,6,30,36,-3,36,-5,71,12,13,19,-12,-28,-4,-37,-39,8,-60,-43,-8,46,127,-35,108,-11,10,-25,-6,31,50,-37,-18,46,-32,-43,-35,-18,-9,10,-31,-24,23,-26,-23,-36,23,30,-11,95,62,0,-49,39,-35,35,-15,-25,-29,-17,2,19,-12,-8,-8,-12,4,35,-58,33,-18,-11,22,27,-27,16,17,9,2,-32,-3,-33,-30,32,4,-4,-46,-32,-9,-34,-5,-16,47,-1,77,-24,14, 
  /* [10][0][][] */ 2,8,3,-8,-38,-7,-67,-20,127,-13,5,64,-27,-1,-9,-2,-11,-8,40,36,29,6,33,-37,-14,11,-21,-19,-8,-27,-39,-14,25,-19,-9,-2,-6,46,-19,-37,-15,-40,-27,16,8,-17,-35,-5,-17,-4,-34,-19,40,-3,1,-17,-24,-15,3,-31,-27,20,26,-10,-2,-47,-9,63,-53,-21,-54,-38,-35,9,22,32,-1,-59,-31,-37,85,37,-25,4,-19,3,10,-4,1,40,9,-28,-5,-44,-47,-51,-20,-11,-16,85,58,-7,29,-23,-50,-66,78,15,10,1,-8,10,50,108,-41,-38,7,85,12,17,43,7,27,-30,-7,15,40,68,-37,-36,48,5,73,-15,31,-1,-30,-7,21,-17,15,-15,10,47,-18,-98,-32,25,-1,5,-71,26,-13,-28,-29,-21,-29,9,-7,8,-11,-23,-17,-51,-12,-34,26,40,67,-42,16,91,-18,58,-9,6,-60,-12,-51,67,6,-51,50,0,-27,-25,-30,-12,3,-19,7,21,9,-37,-9,21,8,-5,44,34,26,35,-29,-20,32,-9,2,28,-2,-22,-19,31,24,-4,-2,-13,-27,-7,-25,-46,14,34,0,16,-20,-16,-6,-30,-1,37,-5,58,21,1,-12,73,-42,-26,50,-44,7,39,-55,-22,10,-30,-17,2,-12,74,-4,31,5,-27,-8,68, 
  /* [11][0][][] */ -3,-38,0,-22,-10,-5,-13,-6,58,-13,29,-21,-24,-34,1,1,-4,-37,12,4,33,18,8,-12,-14,6,10,4,-22,-16,-65,14,-2,-23,-8,39,39,37,-20,-27,11,-10,-17,35,-22,-3,-54,1,-40,-4,-17,-19,28,-5,-15,-31,18,43,-17,-36,-24,43,8,-19,-10,-52,-1,50,-21,1,-22,-37,-27,-10,20,20,11,18,-5,-35,102,-22,34,0,-12,-23,-3,-8,-2,-20,-1,30,-5,-29,-15,-31,-37,-19,-17,64,29,18,13,-7,-38,-49,-5,23,7,-20,6,-21,45,116,-24,-17,-4,48,24,-26,17,4,-6,21,4,40,-4,32,-37,-30,-11,-1,30,4,11,-15,-11,-15,-9,12,17,-37,16,10,-10,-11,-16,-4,11,47,-47,37,30,-9,-45,-40,-20,8,-1,-28,-36,-41,32,-6,-11,5,-9,-9,47,-11,-2,55,6,51,6,-9,-7,7,-18,0,-14,-31,37,18,-14,1,9,-5,-4,-3,-23,20,30,8,-10,-19,-15,-24,23,-10,-5,12,-28,-24,-9,-26,13,41,40,13,0,27,27,-28,-20,-11,10,-11,8,-18,5,6,-10,-2,-6,-16,4,-17,-20,15,40,25,11,-40,17,100,-20,45,35,20,-35,12,-10,-16,13,-3,8,-20,-40,127,-50,21,-3,-15,12,17, 
  /* [12][0][][] */ -25,-45,1,-23,-12,-28,22,-44,101,37,36,-43,-11,-19,0,-68,44,-24,27,-21,41,20,38,-32,-39,8,-16,-2,-21,-19,-28,27,6,-10,-6,58,49,43,14,-13,44,-52,-9,11,15,-12,-36,23,-14,15,6,-17,36,-7,4,-21,31,30,11,-27,-30,29,21,-48,-22,-8,-3,58,34,27,-56,-30,-13,-11,-50,16,7,-21,-41,0,95,-47,84,-3,-24,-14,25,-10,-3,-8,11,19,-8,-18,-25,-30,-27,-14,-40,51,24,-5,25,-6,-22,-71,27,31,-14,-23,14,-2,33,92,-10,-30,16,46,3,-28,94,-27,-16,47,-15,32,32,81,10,-26,5,30,-10,7,-43,-5,-29,8,-9,-27,54,-7,1,-44,-14,-58,-24,13,8,-3,-127,0,-42,-13,-37,3,-1,14,-34,63,-25,-38,-16,-11,25,-52,40,-8,86,-20,81,54,-7,73,25,-19,-13,-18,-22,38,-34,-12,27,13,-5,16,-19,-16,-44,-40,24,41,16,-53,16,-7,-30,5,9,33,-17,-16,-17,11,13,-24,-11,-25,49,26,-22,22,17,1,13,-2,-16,-7,-40,-8,-11,-28,-6,3,-4,-12,28,-29,7,8,-24,31,2,10,-27,64,-3,-10,42,-24,-25,46,-21,-12,13,7,29,-8,-43,41,-3,-53,22,-64,14,25, 
  /* [13][0][][] */ -3,3,7,-13,-25,10,-32,-55,94,-9,13,-47,-2,-3,-15,-45,23,-5,41,-2,48,35,12,10,-10,-35,11,-11,-55,-5,-14,-46,17,-44,16,29,27,60,8,-8,0,11,-27,17,-29,-15,28,-21,-26,20,5,24,-13,-6,-7,25,-43,3,-7,-9,-31,18,-30,-41,-30,-27,-6,90,-3,6,-46,12,-26,9,-27,18,-13,-43,-37,-36,-21,-60,10,-16,-35,11,49,-19,-26,60,0,10,27,-24,-14,-28,12,-3,11,127,39,-2,-3,-52,-40,-19,36,16,-7,-20,41,16,74,121,-17,-34,-18,70,46,-28,95,-11,3,-52,10,7,41,68,-22,-33,23,26,29,-35,16,-7,-17,1,49,-24,80,1,-27,16,-9,-31,6,21,19,-15,16,-21,-3,-16,-25,9,-48,-11,-37,-53,0,-31,-12,-33,41,-27,5,-14,40,-16,-7,91,-4,50,12,-40,-14,-14,-21,-46,-16,-46,3,-2,-28,-14,-50,-21,-8,-11,-65,-1,14,-94,24,-17,-71,-3,29,5,9,12,-41,-30,7,2,43,-11,5,-3,-45,6,-11,-11,44,-2,-17,-18,-30,1,-7,117,0,18,0,-42,13,-5,11,52,-7,49,-11,-34,-28,98,-28,-26,36,-24,-17,57,-5,6,15,6,9,8,-19,-50,-54,-13,27,-30,-17,113, 
  /* [14][0][][] */ -17,4,9,-29,-2,-11,-30,97,98,33,0,-30,-30,24,14,-44,-11,-19,17,6,52,51,-11,-25,-18,-66,-9,-19,-12,-16,-26,1,-16,-16,-13,67,41,-2,41,-15,33,-6,10,-3,-16,-22,-12,29,4,7,21,-1,24,8,-4,29,-5,3,26,-17,-26,49,6,-17,-22,-15,7,-3,-28,2,-22,-17,-29,-3,8,-2,-24,-31,-21,-3,-31,-15,11,-23,-2,-23,5,-15,14,-1,-21,20,9,-32,-37,-21,-15,-14,-45,72,60,-14,27,-16,-34,-60,-12,40,-16,-39,11,6,41,126,-19,-43,2,8,8,-28,61,-18,-3,-6,-13,8,-1,48,6,-22,1,19,-17,-18,-14,5,-25,37,18,15,85,-10,3,-28,6,-28,-16,-8,11,-4,-1,-10,30,14,-32,44,-39,23,17,0,-25,-6,-20,30,4,-40,-17,-24,22,16,-61,33,-8,52,35,-33,-20,-16,11,-54,-17,-36,18,24,-5,25,-6,30,-23,-18,12,3,7,-10,18,-8,-38,-19,40,-15,-28,1,-15,-16,-5,-42,-6,-59,3,5,-14,32,6,-15,-3,-13,-10,-19,9,-4,-13,44,-3,-3,-17,-33,5,4,-2,-17,-16,28,-9,127,3,56,-20,6,11,-1,-23,34,10,20,11,20,2,40,-9,8,-9,-22,-4,-23,1,-26, 
  /* [15][0][][] */ -40,-10,5,-19,-71,-21,-49,-72,123,31,-5,-6,-2,-52,-31,-2,-25,-16,75,-47,4,29,-17,-65,-48,68,1,-79,-32,-4,-47,19,-9,-8,31,-9,43,80,-36,-47,20,-30,-16,1,-29,-13,-40,21,-40,21,-37,-34,11,-7,7,1,57,18,4,-16,-20,23,-27,-12,-6,-42,-15,72,-23,-5,-40,-8,-50,12,24,18,43,-37,-24,-4,19,-19,-63,62,-20,-17,-15,-14,56,-18,17,26,14,-5,-58,10,-29,6,-23,105,20,-7,50,-21,-32,4,-3,40,11,-21,1,-47,57,100,-8,-33,-14,126,9,23,22,-22,-26,-23,22,41,34,71,-15,48,21,-2,-29,44,-24,6,-26,29,34,5,86,-26,-49,11,1,-69,-8,45,49,-9,16,45,-23,-32,-40,-3,-32,13,-20,19,-12,-11,-18,4,9,-18,55,18,84,-25,4,52,-43,51,-24,-9,-2,14,-12,4,-29,-46,-9,16,-55,20,-46,2,-15,-30,17,19,16,-54,59,24,7,-9,44,1,-25,-21,-30,46,0,-30,11,-28,45,-16,14,21,-29,4,-2,-22,6,-5,-17,-4,-21,-32,2,33,-30,12,-21,11,-24,1,1,32,-10,-27,-46,93,-28,-36,12,-33,20,72,-17,22,-5,51,-2,-52,-31,127,31,-7,-15,-64,19,76, 
  /* [16][0][][] */ 13,11,5,-20,-46,-10,24,-56,90,-3,-22,-32,-38,5,-24,25,-20,-24,25,-42,-7,-16,-11,103,-52,52,-31,-16,-44,-5,-16,-23,-12,-25,23,23,4,38,-52,-5,21,-2,-40,-1,-25,26,39,-14,-30,-17,-22,-2,-9,-42,26,6,21,-6,-13,-38,-33,26,2,-2,-13,-47,-35,72,-44,-5,-8,38,-14,-10,4,-20,-6,24,-26,-16,-2,-27,-41,-5,-22,15,24,-46,25,-10,-18,33,-12,-15,-31,20,-32,-7,-21,48,2,-11,22,-62,-23,14,3,21,-19,6,16,11,35,127,-13,-19,18,-13,-10,-9,51,4,-16,-12,-21,3,10,51,-41,-10,3,17,-19,3,5,0,-47,11,3,-19,28,-1,-30,33,-14,27,33,36,-5,-19,118,-21,-10,-18,-19,46,-10,-28,-6,25,26,28,25,-21,3,-7,42,-17,43,-6,94,57,1,75,-4,-50,-1,12,-37,-2,-17,-25,-2,-1,-40,4,32,15,-25,0,-5,47,12,-22,29,-34,-36,6,40,18,-1,16,-15,-31,-1,11,1,-9,-29,17,10,14,26,-34,9,-22,22,-4,-18,-45,4,38,10,26,-19,-14,-2,14,7,19,5,7,-18,-12,-27,113,-22,-1,-1,-26,-19,39,-32,-21,-8,2,9,-31,-15,-27,-9,17,33,-37,-14,79, 
  /* [17][0][][] */ -18,-21,-24,-4,-5,-15,-7,106,93,7,-9,38,-5,2,-6,48,17,-7,7,-29,39,16,-17,9,0,-41,-14,7,-7,-12,-38,-15,34,-20,8,25,18,40,-51,-21,1,7,-10,51,-34,3,30,38,5,26,3,5,9,-6,-15,-23,-13,6,26,-9,1,1,5,-11,-18,-37,-3,18,-46,25,-25,11,-34,-27,-22,6,-23,-43,-43,-42,-55,-41,-43,-34,-5,-17,11,-23,15,34,-21,20,-26,-9,-44,-4,-11,3,-12,24,33,-38,9,-15,-27,-1,10,-4,-26,-41,-2,20,19,93,-36,-26,-33,-14,-9,-18,31,-13,-15,-16,-33,13,25,67,-1,-23,5,14,-12,-23,39,-24,-28,14,36,2,74,-9,28,18,-38,-16,45,11,2,-12,38,-11,-5,3,-25,12,-26,37,-18,11,-14,-10,-24,27,-10,-13,37,8,19,8,12,50,-15,64,-23,-6,-22,-28,-2,-56,-12,-19,0,35,3,-11,17,-2,4,0,1,19,-6,-3,10,-23,1,-17,40,-5,10,11,-17,8,21,-2,19,43,-6,-12,-29,28,0,-36,-19,0,0,-37,-38,-26,-9,54,-12,-15,28,-20,-15,64,22,14,-44,42,7,112,-9,127,-8,15,-9,-12,-18,30,-13,23,50,4,3,-20,-34,-22,26,-11,-2,0,-26,23, 
  /* [18][0][][] */ -16,91,-10,-15,20,-22,-43,14,79,-6,-11,7,20,-41,-16,26,8,-20,53,-10,0,-39,-23,66,4,-27,-8,-1,-9,-29,-35,26,10,-28,-23,5,28,3,-19,7,6,49,-9,19,-41,22,24,-10,-9,4,-29,7,-4,4,6,-20,-33,20,-13,12,16,10,18,-8,-2,-34,12,49,-28,21,5,-10,-20,-7,9,-3,-21,-8,-24,13,-31,-27,-15,-12,-10,-2,-8,21,33,-3,20,14,6,-23,27,-3,-6,0,1,16,23,-20,31,-46,-24,-16,16,29,-3,-25,-30,18,37,65,-1,-37,-15,23,-11,-19,-9,31,-14,-30,-9,3,31,45,5,17,-35,37,27,26,1,-3,-7,4,16,-5,67,-8,-40,13,-20,-23,6,-6,20,15,58,28,-28,-20,-20,-29,-34,5,-11,-18,-44,-23,-11,33,10,-37,0,24,48,16,-40,44,-5,27,-6,-40,-14,-2,-6,-14,-11,41,-24,24,-12,-1,-1,-1,-23,-25,26,4,19,-33,-3,-10,11,17,43,-33,-22,12,-15,-7,1,-8,-8,12,-18,-22,-8,1,-14,-30,6,-21,36,-37,-15,2,-12,31,15,8,19,-6,-19,43,9,-21,-10,26,-39,14,-24,127,-26,-3,-5,7,1,-29,-7,7,-2,-13,-17,8,-17,-13,-19,43,2,-15,-22,-17, 
  /* [19][0][][] */ 5,27,12,-4,-52,-2,-14,-31,80,-30,-18,-58,12,-2,-15,-7,-17,-20,-6,-21,17,12,-26,97,-27,-57,-1,6,-48,6,-36,-10,-7,-17,-10,67,7,31,-41,-24,8,-2,4,54,-61,30,39,13,-31,-12,6,0,44,-11,-14,-28,-50,41,18,-12,-18,-19,45,-11,-27,-26,5,87,-4,10,-47,-3,-22,20,-24,20,-12,-46,-43,-20,-58,-53,-58,-17,-15,5,36,-29,3,15,12,58,24,18,-33,-28,-6,0,-16,62,54,-4,10,-30,-31,-56,3,69,-16,-9,-18,22,50,97,-2,-27,12,12,30,-21,39,3,-2,-38,-32,35,-14,82,-18,-43,-11,4,42,18,-4,-19,-31,2,14,-4,74,-13,-27,30,-33,-10,-3,26,-4,9,127,46,32,-18,-5,-43,-26,5,-5,-45,-19,-31,-10,7,20,-44,41,-54,24,15,96,54,-3,82,-15,-23,-11,-31,-7,-37,7,-36,4,9,24,-28,-27,-25,28,-2,-51,33,-10,-24,29,-46,39,-13,40,-25,13,38,-5,-19,-7,-2,15,64,25,15,-17,45,-49,0,1,-4,18,-3,-45,-67,-15,73,-26,43,-1,-11,33,-4,-23,-9,2,44,-4,-32,-7,83,-28,11,-19,-28,-23,19,-28,-20,20,-10,-5,2,-22,-3,-41,-29,51,-19,-15,-38, 
  /* [20][0][][] */ -25,52,9,-23,12,10,-40,-52,65,58,33,-75,18,-17,-16,-9,20,43,-2,-31,19,22,-38,66,-16,-33,-10,-5,-30,-33,-43,25,22,-15,-20,-6,-27,34,-4,-31,-43,-12,6,20,20,-1,127,15,-10,3,-47,-49,-30,-17,-31,15,-33,-27,-37,40,-12,-18,-7,-23,-64,-39,-28,65,5,18,-17,-4,-33,13,-25,-4,-12,-46,32,-16,38,-18,60,-24,2,9,88,-32,-6,-12,-25,17,5,-12,-36,-11,-19,-4,-17,31,48,-16,45,-31,-25,-15,65,49,3,-17,-13,7,24,44,37,-36,-15,5,-17,-23,13,-10,12,-45,3,31,28,71,-35,-24,-22,-4,-23,-6,15,-30,-35,-44,23,-2,61,3,-42,-2,1,-12,69,3,-1,-29,53,-23,7,-35,-1,17,-3,-1,-34,32,-32,-41,-26,0,1,-63,3,-4,9,1,21,71,-10,16,10,-8,40,-23,-52,-37,20,74,-2,-26,-29,13,-28,53,-11,14,60,-50,32,-50,-24,-5,-30,-4,0,-19,-11,51,-10,-42,-19,-38,-30,-29,54,-13,-17,-12,-32,5,-20,-33,35,-2,-53,13,4,60,-29,10,-39,-12,7,-14,-17,72,-39,52,-6,-37,44,65,-48,1,-21,-6,35,-41,-34,64,-6,-12,20,-20,-27,3,-2,16,8,-44,93,-27, 
  /* [21][0][][] */ -13,-33,-44,-11,12,-1,-46,-9,58,13,20,10,-28,18,-27,-17,53,-26,113,-31,-29,-4,-33,40,-59,23,-5,15,-50,-21,-49,45,11,-52,-3,-38,1,2,-19,11,42,-6,-19,-29,-7,58,-10,-8,16,-32,-44,-18,-19,-9,-7,-11,5,-1,-24,-21,-32,12,-14,-18,3,-26,-43,18,-42,-19,-18,71,15,-44,-54,-1,-29,-29,-16,-9,6,-37,-9,59,-36,-8,0,22,7,-30,-18,-11,-28,-32,-17,11,15,-27,-2,31,37,-35,36,20,-80,-16,38,-13,9,17,9,-26,21,34,46,-19,1,-10,1,25,127,-53,-19,-15,0,22,5,68,24,-10,18,15,25,8,43,25,-18,-1,-32,8,-24,-3,-20,2,5,-59,-10,1,29,5,45,26,48,-14,-49,-44,-16,16,-28,69,-9,-27,3,36,-47,-30,-40,-18,39,-11,94,78,35,46,-21,-6,-16,17,-15,-25,-2,48,-43,18,-9,7,4,20,22,-19,11,-16,64,33,-21,-21,71,-15,20,2,33,14,-40,30,-17,26,-9,-48,58,-14,2,-22,35,-20,-12,-21,46,-29,-57,44,-29,15,-15,21,2,-34,-48,0,22,-29,-7,5,-2,-43,10,116,-30,54,-6,24,-2,8,-1,3,-4,18,-5,-34,10,-24,-13,-37,56,-18,-10,0, 
  /* [22][0][][] */ -47,20,-45,18,82,-24,-7,-4,45,40,13,11,-15,-3,-28,-53,28,24,61,-1,-19,-49,-52,52,-48,87,-15,-20,-52,-26,-50,26,21,-43,-19,-36,-8,-37,1,-41,11,-34,-14,37,-10,34,44,-33,29,4,-37,-16,-16,-46,-38,-9,22,-4,-42,-3,-24,6,1,16,-34,-49,-7,-33,15,-14,-2,127,-42,-3,-5,31,-36,-31,25,26,49,-43,-5,18,-17,7,-15,82,38,-14,9,-33,-5,59,-17,-15,2,-20,-9,36,17,-29,30,27,-40,-33,76,-16,11,2,16,-1,-31,21,-11,-10,-11,-24,-31,46,97,-3,0,-21,6,-1,35,63,70,-35,-35,11,11,20,-9,21,-54,-29,10,0,-8,2,-24,-72,4,-54,-20,-47,48,-17,17,-15,67,-40,-29,-25,-8,-14,10,66,-34,-46,-33,80,-70,-24,-59,-5,77,-9,36,34,56,91,10,-25,30,9,-7,11,16,86,-38,45,20,29,-42,55,25,-6,11,-33,75,29,-33,-5,57,-33,5,-4,17,-22,-4,-24,-47,0,-24,-50,59,-12,-24,3,15,-26,-31,3,26,1,-66,31,9,-45,-21,-30,-8,-39,-21,-5,37,-11,-15,0,-26,-31,-28,121,-2,-29,-13,5,33,-4,-19,-1,1,-23,-8,-38,3,-34,-14,-56,41,-20,3,-9, 
  /* [23][0][][] */ -13,7,-48,-2,46,-2,-16,-19,89,39,-4,58,-9,-45,-25,-27,31,-12,127,17,-1,-8,-37,15,-41,-20,8,37,-9,-5,-23,52,-8,-24,-12,-43,3,9,-29,-11,18,1,5,0,-22,24,-9,35,85,24,-17,-1,6,-57,18,5,22,19,-12,-2,-24,0,-7,-30,-53,-28,-40,-13,2,6,-2,80,19,-3,14,-26,-19,-24,-11,16,27,-37,-39,-24,-44,3,-26,6,-25,-6,-19,-25,-10,5,-16,-29,26,-32,-9,-8,6,-18,7,-10,-56,-3,35,24,-4,12,28,-17,5,30,11,-42,-8,5,-29,38,79,-20,-17,6,-12,-15,9,58,53,16,-12,6,35,21,-35,19,-31,25,-21,12,3,-1,-6,-18,-10,-35,-16,-34,52,-2,2,39,13,-31,21,-11,-8,6,1,66,-1,-51,41,57,4,-45,-57,30,18,22,22,6,40,40,-5,-4,2,2,0,-16,17,43,-38,23,2,30,7,-6,-4,20,14,-18,10,15,-19,-6,16,-28,25,3,-1,17,-14,24,5,21,36,-37,69,-7,-21,-15,60,-40,-34,0,29,-30,-50,54,-3,-25,-28,-13,2,-49,-29,-6,41,-37,-34,19,8,-10,-18,111,-4,21,-14,-12,14,-2,7,-8,0,-27,-4,24,-26,-37,28,-22,-9,4,-27,-14, 
  /* [24][0][][] */ -26,12,-38,-12,-33,-6,-6,-34,54,49,26,26,43,26,-4,-51,54,-30,15,-54,-16,33,-29,-41,21,57,23,71,-21,15,-34,10,15,-34,3,-15,14,-17,-17,-26,32,-18,-41,74,-12,24,18,-9,16,-47,26,45,-75,-9,-11,7,23,21,-39,-40,12,-20,-13,-12,-3,11,-18,-19,60,30,-30,37,5,-27,-29,-12,-9,-18,-18,6,-75,-30,15,31,-3,1,29,17,4,14,-53,-32,-36,-6,-52,11,43,-26,16,1,-1,-35,25,-36,-31,-24,9,-3,-34,33,-3,6,-19,49,6,9,41,101,-20,-28,73,-20,-25,-57,-34,-7,9,43,77,-9,-1,24,-31,-17,-3,6,-16,-35,4,-12,67,10,0,-38,3,-29,-25,-2,44,-10,41,-13,64,-26,7,2,13,38,-47,84,31,39,-49,-57,3,-62,-51,-27,47,-3,96,63,22,40,31,-17,-31,11,-3,-5,12,35,-20,-5,-17,62,-68,15,-37,-1,17,-46,33,-10,-26,-7,21,-6,30,-13,31,21,-14,19,11,-9,-13,-60,10,4,-36,-3,-14,10,60,19,25,-27,-63,74,-48,-38,-50,-32,17,-37,-56,-12,40,-30,-61,0,-45,-42,-30,47,-15,-22,25,-3,19,48,34,12,-33,21,-7,-27,-9,-39,127,-19,-31,2,-7,-14, 
  /* [25][0][][] */ 22,48,-13,8,11,114,-19,-76,-16,-54,-33,31,-15,-5,-49,32,-22,10,6,-22,13,-13,-42,-16,18,80,-10,46,-36,-39,-65,77,-5,-39,62,-29,-41,-54,-49,1,-21,11,-26,-27,-7,10,-1,-24,-27,-35,-20,-6,40,-33,12,-37,-37,-19,-25,39,36,62,20,0,-44,-44,-23,-44,-77,-15,78,-32,-30,-1,23,31,-34,79,-9,12,-39,15,-4,52,29,-36,48,-23,-24,-3,-60,46,10,-8,2,32,33,12,-26,20,10,18,-43,20,-38,-30,-38,63,30,-39,-31,-10,39,-19,54,8,-19,58,-44,88,-2,20,66,11,17,-3,-4,50,-12,-38,0,1,93,-22,127,-29,26,-8,117,-17,12,5,97,-2,-14,7,-7,-65,-17,53,-45,-41,0,52,-8,0,53,16,-34,-26,-58,-12,70,9,11,-12,-17,3,10,9,29,-21,90,56,-35,-34,12,-5,-30,51,-21,-9,-6,-7,-31,-50,41,-23,101,-3,2,-34,-11,-36,20,-43,-45,-28,24,63,23,55,-40,-21,-16,-26,-30,-52,-9,12,-20,-2,1,9,7,47,-28,-41,-46,101,-38,-44,-20,-53,-32,-25,-48,-34,13,-38,9,17,23,104,5,-22,-6,10,21,-17,-34,-32,1,24,-12,0,-40,37,7,-50,-17,25,-39,-20,-29,-57, 
  /* [26][0][][] */ 22,73,-18,-29,-14,7,23,-50,-5,-21,-29,54,-63,-14,-44,-10,-33,40,26,-8,9,4,-12,-7,-31,-2,46,-30,19,-19,-42,30,-16,-22,72,20,22,-57,-47,-24,32,8,-25,-43,86,7,70,-14,-49,-26,-29,-1,11,12,22,-25,68,-47,-9,-5,10,-13,1,-16,-14,-20,-27,8,6,2,11,-23,-45,-19,0,34,5,68,-18,-23,15,0,-18,56,6,-6,27,-4,-10,-2,-26,10,-15,-33,-9,-6,85,-28,-22,-17,-10,19,-16,23,-9,-27,-23,25,72,9,-22,-11,47,23,61,-6,-9,18,57,-16,-1,4,19,-17,28,-22,1,87,-9,-52,-28,19,77,-31,94,2,-6,13,72,39,-30,-14,14,0,-27,-4,-6,-46,16,54,16,-27,2,68,-48,41,45,13,-25,5,-16,-29,-4,-32,-7,-44,21,-23,31,37,-8,-26,41,31,-55,-16,26,25,-30,1,-43,-10,-10,-17,-18,-26,-14,16,127,-42,51,-18,-11,-14,1,19,-26,-15,6,-6,29,36,-31,-37,-19,-21,-40,-44,14,26,11,-1,-8,-3,71,21,-38,-19,-47,37,-20,-11,6,20,-31,-29,-55,-13,-3,-6,-21,40,11,-13,29,-49,-1,10,-34,-8,-16,58,-20,-24,9,20,-25,64,-14,-11,7,35,-21,-50,2,-22, 
  /* [27][0][][] */ -7,-41,-18,-35,0,13,25,-49,38,8,-27,22,-49,-13,-47,-19,-43,69,45,-23,-17,-1,-4,-8,-18,99,37,16,-20,-26,-84,42,-45,-29,30,-18,32,-72,-47,0,-37,-45,-15,6,127,5,6,21,-32,-51,-4,20,34,17,13,-28,104,-32,-7,3,1,6,-11,-20,-8,-5,-14,2,51,-10,35,-28,18,-6,-23,55,0,46,23,-7,72,-36,31,65,-25,-33,30,-14,-25,-32,-25,15,-31,-13,-16,35,108,-30,-36,36,-13,71,-14,36,-16,-19,-21,0,83,-19,-41,-21,44,8,67,-36,30,48,0,13,-28,-16,60,-47,9,-8,12,112,-9,-46,-1,-11,103,0,84,-13,39,-28,120,-18,-87,-38,-64,2,-2,89,-26,-87,-3,72,70,-36,-29,48,-14,15,74,18,3,-3,-19,-12,-14,-16,2,-58,11,-34,-16,-5,-78,-60,55,22,-79,-23,55,28,-58,-14,-53,-25,-50,-1,-12,-9,-6,-9,92,-24,20,-51,-27,1,-4,-2,-40,-59,-3,-40,61,9,-14,-35,-61,-59,-25,-76,24,-29,-17,36,-28,37,-20,-7,-67,6,-65,41,-3,49,3,5,-31,-25,-22,10,-14,25,8,32,31,-36,-5,-30,-30,9,13,14,22,39,-34,9,-20,14,17,38,-6,52,19,3,-36,-37,16,-3, 
  /* [28][0][][] */ -16,78,-6,-8,-10,50,-25,-53,15,-40,-16,32,-53,-5,-33,5,-17,14,11,-38,40,-2,-32,-34,-22,32,26,43,42,-21,13,30,-13,-33,52,-23,-32,-11,-35,18,11,-3,-12,-44,-14,-18,-1,-4,-33,-12,-2,9,9,-19,10,-12,-27,-34,-43,10,27,22,-16,-11,-34,-23,-13,-23,-2,32,7,-15,-47,-12,-9,20,-8,56,11,-6,-7,12,11,-16,10,-21,26,5,-30,-18,-19,27,1,-37,-58,6,57,16,-3,-12,-18,26,-18,2,-13,8,8,-17,70,30,-32,-21,51,-48,34,21,-7,20,-19,34,38,20,56,-22,22,-18,4,28,-9,-26,28,27,44,-30,127,-19,17,11,90,1,20,4,35,-4,-27,-28,-34,-56,21,44,-19,-16,-33,70,-32,-21,24,7,-47,-36,-39,-28,60,-24,-14,2,-34,-19,4,36,1,-22,50,31,5,-15,25,-6,-15,33,-35,20,-25,-26,-6,-16,13,19,86,-3,6,-26,-23,-34,11,7,-43,-17,4,47,36,2,-26,-9,-3,-2,-26,-29,16,-27,-39,0,-13,22,33,18,-26,7,-11,64,2,12,6,-22,-4,-55,-21,-1,-12,5,3,33,26,104,32,-14,3,2,-17,-34,-13,49,-15,-5,-9,2,-19,65,-25,-37,-25,-1,-36,-15,-19,-25, 
  /* [29][0][][] */ 2,35,4,0,-14,41,53,-41,-9,-16,7,-26,-36,0,-8,-6,-44,-19,42,10,33,8,-47,9,-26,-23,-46,-25,-28,18,33,3,0,13,62,-28,0,19,7,-36,-36,6,-16,-27,21,-47,83,-28,-8,26,1,-36,16,55,19,42,48,35,-34,6,-8,30,-10,12,-1,31,-7,1,-3,10,-26,77,-50,22,18,-6,15,54,5,-10,17,28,66,-13,5,38,7,-23,-35,3,0,-16,28,32,-4,14,-14,-16,-19,14,-50,-11,14,39,-10,-12,1,19,-3,-2,-1,-26,-8,-40,-22,-33,-30,-27,18,-10,34,-30,21,9,-1,5,-25,57,-47,-25,-26,-13,61,13,18,-17,-15,1,-29,-1,7,-30,-18,-49,-22,-6,-23,-36,-9,28,-47,-11,3,27,3,18,74,-7,26,42,3,-32,74,3,-9,-55,5,-28,-11,-3,-13,-15,35,-29,-30,-18,-22,47,-36,-44,-40,5,11,13,-21,-7,-46,-24,59,-21,5,3,-24,45,42,108,79,-5,11,-26,-41,21,-23,-38,-19,-29,-68,-24,4,-14,-13,12,23,-64,59,78,-13,-8,-61,2,4,39,-9,7,3,-9,-34,-9,-52,-16,9,52,-6,-8,-43,-19,24,7,-11,48,-9,127,-34,-31,35,9,-37,-3,-13,19,-11,5,-24,-8,-31,12, 
  /* [30][0][][] */ 4,5,-24,-31,-15,22,-31,-15,8,1,-4,23,-34,-8,-25,-16,16,-19,-29,60,19,44,-29,-47,-19,-6,-23,-76,-29,-22,-42,7,-5,-24,4,13,-9,-39,-12,-33,-3,-24,-2,-6,40,-40,-2,-7,38,-26,-23,-11,31,9,-3,12,28,-26,-22,7,12,35,4,-19,-4,-37,-10,-12,77,-43,-27,7,-19,75,2,29,-1,62,15,-36,-12,-40,17,7,10,8,3,-1,-20,15,26,3,37,-30,-16,5,-51,-28,-17,-69,-3,-12,-46,-27,-6,23,-9,7,23,51,5,-10,82,-16,43,-31,5,20,1,22,-28,11,5,-14,29,31,14,51,13,-14,11,24,-15,22,-19,-16,-38,-2,50,13,-16,-14,-20,23,39,-30,-12,26,-11,-30,20,18,23,-30,1,34,31,-7,-12,7,-17,-15,-2,1,-31,-18,4,-20,-12,-11,66,10,54,19,-14,-19,5,-29,-6,10,-4,14,24,-5,-8,8,-1,-24,-6,2,49,1,2,-41,6,3,-18,77,3,-11,-22,-37,-16,4,7,-24,-15,-16,-31,-21,-3,28,39,14,26,23,-30,-3,-12,127,-21,-1,3,-13,-4,-11,-11,-27,15,41,19,32,-28,4,42,-4,-4,-48,-21,-42,6,2,2,-44,-8,-15,8,72,19,-19,-9,20,-71,-18,59,16, 
  /* [31][0][][] */ -3,-32,9,-12,38,52,6,11,-10,23,-20,28,-27,-14,-20,1,17,-22,11,54,10,29,-34,-24,-22,-9,21,-29,-31,-25,2,16,4,-23,43,34,-1,-24,-18,-13,-11,-42,-17,29,62,-36,-8,9,0,-14,-10,-36,47,-12,0,13,50,4,-44,29,-48,-1,26,20,-8,-20,-19,-31,86,-37,-8,-11,-17,15,9,19,6,91,18,-60,-1,-10,38,38,9,-27,-3,-6,-16,6,-7,-15,25,-23,-37,-19,-28,-42,10,24,18,64,-28,0,-10,20,39,44,44,24,-4,11,38,63,3,-41,14,12,-32,5,17,21,44,-13,8,38,-18,30,2,-36,6,-19,-6,8,-2,-23,18,2,37,8,-14,-25,-17,21,-1,-9,-43,-13,-7,56,-9,-16,-10,-46,-38,63,27,-18,-26,3,-33,-26,18,-21,3,-7,-8,-2,-16,1,47,-9,41,34,-21,-37,-8,-12,-42,-36,-25,4,-14,-2,-6,18,5,5,32,16,-3,-1,4,-33,-5,-22,-13,24,5,-18,-10,12,-19,-46,2,-21,-19,59,-37,-31,-5,10,25,-5,-10,0,-31,-25,12,127,5,22,-31,9,-23,-8,-23,-27,-16,14,8,-5,8,17,25,1,4,-24,-7,-3,4,3,-12,-19,6,-40,-27,-6,-20,-11,-25,18,-41,-16,-15,24, 
  /* [32][0][][] */ 2,4,-19,-5,10,40,-18,13,18,22,-19,49,-9,-43,-44,-37,8,-7,-23,65,-10,-13,-35,-41,-6,-36,13,-62,-2,-24,-16,12,-18,-44,18,26,-13,-26,-36,-16,-6,-17,-15,-9,38,-58,-6,-15,-21,-5,-15,-6,47,-4,-30,-12,13,-35,-36,12,-20,-15,-2,-3,-2,-19,-14,-47,84,-62,-8,-9,-36,3,-16,18,10,69,-20,-49,-1,16,50,39,-12,30,-7,-11,-21,24,-51,3,9,-47,-27,6,-55,-29,-4,-28,-4,33,-51,4,2,10,11,38,84,68,-12,-43,78,7,78,-30,-45,28,-40,46,25,6,13,24,47,28,-18,56,2,-23,-10,32,19,26,0,-15,19,21,82,47,-8,-31,6,15,15,4,-32,-8,-42,-18,-6,-2,65,-15,-46,69,50,-2,8,32,39,-21,37,-19,3,-5,-13,3,-29,12,73,-18,63,37,-38,-12,6,-33,-2,-18,-11,32,-9,6,-7,-1,29,-13,31,-19,52,-12,-5,-15,-33,1,-21,16,3,6,10,7,-29,-4,12,-46,-34,17,-39,-25,42,31,42,12,60,-15,-73,-27,-1,127,-23,2,15,29,-26,-18,-12,-42,3,1,10,20,-15,-7,58,3,-10,-36,1,-14,-10,16,-35,-34,-4,11,-13,94,11,-25,-20,31,-56,-52,28,-7, 
  /* [33][0][][] */ -30,1,-29,12,1,22,-18,38,-6,40,-7,19,-20,-12,-54,-30,-24,7,-24,0,-27,3,0,-36,-35,-45,-13,7,33,0,16,18,-6,1,-10,-24,16,-16,-26,-41,-16,-32,-27,-21,1,-26,28,-16,6,4,-42,-16,-43,3,12,-20,5,-18,-9,-15,9,-16,-11,8,-11,-17,-6,39,-34,-16,-23,31,-8,24,-12,-5,0,9,12,-31,19,-16,-9,24,-11,2,-31,-5,-20,27,-33,-14,8,-3,-26,4,10,1,2,22,-19,-3,-6,17,13,-12,-6,17,-18,81,-4,-15,-20,1,61,0,-6,38,64,21,17,2,7,25,43,-18,-16,-12,-29,2,-6,34,-8,127,21,24,36,23,2,-3,17,-36,18,-12,-3,-23,-10,12,-37,-26,-11,47,-18,-33,-1,18,49,7,44,38,2,-22,-10,11,-18,13,23,-3,-28,-21,60,-26,60,-4,-18,18,-12,-4,-9,29,10,19,46,7,2,-16,1,26,-16,-9,10,-14,-5,38,-14,-29,28,-12,-32,-20,-16,0,29,45,-1,11,5,-2,0,-15,6,7,15,-6,14,58,-1,-1,-3,7,-19,18,12,-7,-47,-15,-16,-25,-16,16,0,34,27,-24,11,19,17,-4,8,-30,-28,30,-23,-4,-25,11,-22,56,5,-28,-9,19,-18,-3,6,-3, 
  /* [34][0][][] */ -7,43,-25,3,-21,32,3,83,-3,59,-48,6,-15,-43,-89,-4,-37,65,-30,43,-27,51,55,-94,2,-71,-3,57,62,-30,-29,-10,-37,-50,10,-17,-21,-18,-2,-11,7,-19,-33,-25,-28,14,27,-41,13,-40,-32,-33,-73,-27,-3,-46,23,-46,-2,-31,6,10,-49,-13,-74,25,-16,17,-39,74,-36,50,-30,-33,65,8,32,-12,-11,-25,55,6,-11,-28,101,21,-63,-7,-40,0,-33,-31,-27,-25,52,-26,-9,1,15,-7,-2,14,-13,7,21,-31,-8,18,-46,72,-23,-58,-24,-33,117,52,15,32,57,49,10,3,51,25,-25,-17,-35,11,-33,70,-12,38,8,91,-7,19,21,55,35,23,127,-13,-33,-11,-37,-41,-46,14,-6,-15,-13,36,13,11,-38,14,62,-48,100,13,-14,11,-55,43,-54,21,55,0,-9,-47,46,-37,56,-44,-11,-5,-7,20,-11,-22,36,30,34,-6,17,26,-5,30,-22,-13,-17,-61,39,-6,17,-17,78,-59,-66,-62,-12,-29,-6,55,1,-31,5,-11,-45,-5,-20,29,60,-21,55,-8,12,-17,10,-20,-39,-23,23,18,17,-59,1,6,-51,30,15,35,43,9,40,9,56,0,26,-28,5,-5,6,5,-47,40,-34,77,1,-28,-25,53,-55,-22,22,25, 
  /* [35][0][][] */ 33,24,-9,26,-28,71,6,-44,-21,32,-22,11,-26,-10,-25,7,-5,25,3,30,-51,61,-15,-12,6,-27,3,-45,-3,-3,-39,44,-16,5,-2,-25,34,-6,-22,-8,-15,26,7,-23,28,-13,79,-10,6,-12,-58,-13,-15,5,42,8,-15,-23,-44,12,47,6,-35,-3,-37,-32,64,5,16,0,-40,66,10,-6,16,18,-22,22,-2,9,0,-36,19,-1,1,6,-46,12,-3,0,-14,10,-37,-1,-11,31,-42,-19,-27,-3,-30,-8,-47,-25,-28,-29,-42,83,-9,127,9,-25,26,14,49,-20,-17,34,44,71,-20,36,43,-8,-11,-5,-10,100,5,-4,29,21,4,3,65,-14,25,13,90,-19,17,-6,17,44,24,6,20,-4,-45,40,-4,-4,-35,-56,-25,48,11,4,-18,42,-17,-76,0,22,15,50,11,11,-18,-20,23,-45,73,23,-18,21,33,0,-19,21,-4,6,5,-19,34,18,29,11,-29,0,2,-27,7,-14,-35,14,13,4,10,3,-22,-7,-36,38,28,27,-48,-41,8,-37,10,15,-5,13,23,4,-53,-19,-17,-11,-56,47,9,4,-24,55,-14,-21,-15,4,28,15,64,15,30,11,14,-45,20,-27,9,-40,-49,-24,-6,3,-20,98,22,-48,-8,-19,-25,-31,67,13, 
  /* [36][0][][] */ 74,21,-21,30,-21,49,35,-6,-24,33,-19,-12,-10,-30,-35,22,-7,7,-7,22,-43,39,-35,-11,-4,-3,2,-43,23,-35,-25,49,-29,-8,3,-10,53,-17,-31,-4,1,15,-12,-41,-3,-24,84,-34,3,11,-52,-22,-16,-8,15,2,-23,5,-14,16,8,7,-48,-24,-27,-32,-3,7,-6,-13,-24,42,-13,8,41,13,4,7,2,-21,-28,-20,50,-15,-21,-2,-24,-26,-13,-25,-17,3,-33,-9,-22,11,-47,-20,-26,0,2,28,-60,1,-13,-39,-5,85,-32,127,6,-24,16,15,42,-20,-2,44,48,44,-10,15,23,-2,0,5,-15,18,-14,-18,2,34,13,10,51,-16,-6,13,41,-18,58,5,35,-8,20,-1,22,12,-17,-10,-23,27,-26,-56,-19,42,35,11,4,63,-7,-34,-2,-3,1,4,-11,10,-12,-26,29,-20,33,18,-8,-4,23,-5,8,10,2,15,17,-17,17,-3,31,23,-32,-10,-5,-7,6,5,-9,32,11,-13,7,-8,-4,-1,-33,42,23,23,-15,-33,5,-36,-1,34,17,22,18,8,-27,-15,-7,2,-38,-12,-12,8,-24,66,-24,-3,-40,-4,14,2,62,4,-26,-16,19,-27,29,-38,11,-6,-37,-20,-9,4,-19,66,4,-12,-2,4,2,-36,72,-35, 
  /* [37][0][][] */ 47,5,12,34,-25,97,-18,-66,-1,39,-4,8,-38,-39,10,3,12,24,3,32,-36,47,-25,19,-34,-13,-24,-47,0,-32,-38,34,-2,-3,-14,9,34,-11,-22,-9,7,0,-30,-34,17,-31,38,-12,-19,2,-41,-27,17,5,18,6,-5,-40,-28,-4,19,29,-18,-3,2,-32,-2,12,5,-32,-5,40,26,-5,5,23,-19,29,-22,-2,-22,-33,-18,4,-17,28,-44,9,-6,23,-9,-28,-11,-23,-32,47,-57,-43,-17,9,17,2,-31,21,-29,-26,-25,49,-24,127,-26,-11,-15,12,29,-30,-11,49,39,35,17,33,27,0,1,-1,-7,36,22,5,10,-14,7,6,43,-8,12,35,75,-3,-5,-15,25,9,10,1,52,-20,-11,-39,-30,8,21,-37,-14,5,10,28,1,61,-36,-28,28,11,-14,48,2,-1,-32,-21,41,-51,62,1,-26,8,43,-23,10,99,2,-23,-11,12,15,14,37,8,-54,-40,-15,16,-14,1,-1,-1,8,-5,8,-1,-24,-28,-31,14,12,17,-35,-38,9,-20,-38,44,-11,0,21,17,-36,-4,-7,15,-8,43,20,-2,-27,42,-24,-7,-12,-23,24,8,60,51,21,-24,31,-19,43,-38,-10,-29,-34,0,14,-38,-42,100,-26,-16,-13,-40,-9,-20,-10,-25, 
  /* [38][0][][] */ -11,-23,-31,-31,53,-19,-12,-6,-13,-20,-56,110,-35,-30,-40,54,-8,7,76,-6,-5,-13,-28,51,-30,-48,-42,-39,50,-38,61,-23,-4,-65,127,-69,85,-56,-32,-38,-42,-15,-10,-2,96,19,-28,-5,25,-52,7,-29,4,44,-4,-37,79,1,-29,49,-35,-11,-14,-42,-34,-59,-59,42,5,3,7,-47,-19,-38,-20,42,-51,22,-6,-40,39,-21,47,25,-35,-35,12,3,-34,10,-61,-11,-59,19,8,-1,86,-44,9,16,-30,17,-8,0,-59,-36,102,-16,106,78,-32,-12,84,6,-28,-2,28,21,-27,-31,-2,-2,50,-28,-7,-30,-59,24,-1,-56,21,65,30,-36,78,-27,26,58,103,-7,55,-24,79,1,2,4,-18,-14,-35,116,3,-13,35,55,-66,-9,9,-36,-1,15,46,-1,-19,7,-41,-8,19,-40,-13,4,21,-8,63,-13,-35,46,-35,-13,21,-5,-28,67,19,-22,8,-17,-34,35,68,-67,41,3,-24,-6,-32,-16,5,-75,-21,84,13,-4,-24,0,-11,-25,-61,17,-49,-17,26,11,-2,4,57,-20,-24,-23,20,18,-30,64,-10,-22,7,-31,-34,-20,-49,1,-33,17,37,2,14,-36,22,-5,-20,-45,34,21,-19,-25,-5,51,12,55,14,22,-41,-30,-39,-17,-55,25, 
  /* [39][0][][] */ 31,71,-60,18,-8,55,-60,-1,-33,-26,19,56,5,3,-46,-31,-6,-8,56,53,-16,47,-19,-43,-44,-24,-59,-52,-44,-7,4,27,-20,-8,-1,-14,52,-57,-1,-11,-30,-32,3,14,59,-43,38,-30,79,-26,-14,2,43,-19,-20,-11,127,-24,-41,36,-35,45,46,-3,-6,-16,-51,-12,79,-2,30,8,104,-5,-16,4,18,2,30,-40,-16,-20,-14,46,0,78,-10,-22,-7,76,-8,67,-16,31,-52,42,-9,9,20,-41,5,-7,-44,-23,-10,4,77,36,10,37,-39,-27,20,49,24,-11,-20,25,-47,0,-29,19,22,-27,38,-25,-2,46,-31,34,-1,23,-14,56,4,-8,-71,16,37,-29,2,-14,-51,40,-10,-23,12,-28,-17,6,-4,3,-57,-4,25,-4,51,-3,23,40,-13,0,-15,52,-41,-68,-32,-10,-11,-41,104,17,59,28,-58,8,-27,51,-5,-60,-17,-30,-61,8,-2,-14,-50,-8,31,-8,-1,-3,11,-39,-7,-15,-10,-8,29,21,-64,-51,-23,-18,11,21,33,-15,-21,13,-43,-5,35,-16,61,-56,-41,11,-11,27,-20,-10,-41,-18,24,-19,-28,5,-21,36,-52,29,-32,3,-11,-4,34,-40,-38,8,44,-9,1,6,16,4,24,-12,18,1,-51,17,116,39,-39,-10, 
  /* [40][0][][] */ -6,-27,4,7,-15,-1,10,28,14,-27,-57,-9,-39,-25,-22,-23,29,-42,41,31,-22,7,11,8,-40,27,-17,21,-42,-16,6,6,18,14,47,25,47,-25,-32,8,-21,-24,23,67,89,-10,16,-36,45,12,-12,0,24,9,9,-6,126,6,-45,49,22,-20,8,-38,-7,-29,-11,16,-3,-10,18,-47,12,-35,-30,29,2,93,15,-41,6,-52,-30,5,-3,-21,-2,8,-33,67,-22,35,7,-22,-4,4,-2,-14,3,-38,85,59,-72,13,-46,-22,127,-1,42,-11,17,5,57,111,34,-30,-3,-7,-33,-45,11,-9,55,-12,-38,4,-7,64,-10,-49,23,29,19,10,48,-37,-17,-14,13,-5,-33,-33,-60,2,-6,-31,-6,-67,-53,72,-39,-15,14,35,-17,60,19,-16,10,12,-31,-10,-24,-32,-43,-52,9,4,-11,-16,-32,-8,42,53,3,-17,7,-10,-26,-56,-38,-17,-16,22,-33,-36,-3,11,36,-29,50,-6,-15,-16,-8,-24,-2,-2,28,1,-22,-7,-27,-36,-19,-15,0,29,33,-13,-14,40,-18,-13,50,-62,-14,8,1,34,15,5,-23,12,-8,-16,-46,-49,-45,39,-22,23,21,29,-32,-10,5,62,17,16,-19,19,6,13,23,1,7,16,-30,8,-31,20,14,-18,-28,-6, 
  /* [41][0][][] */ 39,6,-10,-16,-6,-21,10,17,48,-15,-16,57,-32,-15,-48,-26,-9,2,5,-17,-22,-20,-7,-15,-41,0,-23,-13,34,-25,-29,2,17,-34,35,-15,37,-18,-18,8,-10,0,1,0,112,-32,12,-27,8,-44,1,41,3,15,-14,-11,93,-53,-13,4,22,-6,-6,-7,-13,-24,-37,-12,-12,28,19,-17,-24,-37,7,46,-11,25,1,-16,20,-9,-42,-14,0,-7,10,-10,-30,23,3,61,-54,6,-14,47,57,-10,-38,-24,34,38,-20,-26,-47,-18,71,68,35,-16,-12,-19,46,3,1,-19,-1,16,-45,-37,-3,-26,22,-31,2,-14,-39,64,-4,-40,-48,68,44,-21,-15,-27,-29,106,127,24,32,-24,25,27,-7,-41,-3,-33,-23,10,-43,-14,5,57,6,15,-4,-23,-2,1,8,8,-17,-21,-61,-46,-7,-11,21,25,41,4,27,32,-36,-28,-28,-17,-55,30,-19,-14,-13,-5,-17,0,-13,10,50,-12,93,6,8,-26,-9,16,42,-40,-17,-32,-27,-1,10,6,-20,-36,-25,-11,-18,74,45,22,-8,-4,82,-23,-53,-1,-9,10,-29,-22,-17,19,-17,-21,-27,10,-42,3,-7,31,-7,-9,2,-18,-17,75,7,-14,-23,38,2,-30,-19,24,26,66,10,-37,-43,-10,-30,-38,-29,6, 
  /* [42][0][][] */ -16,2,-16,-8,14,-11,35,71,32,-15,-46,27,-7,-3,-56,44,7,-25,-24,23,-40,20,-26,-53,9,31,-37,5,-13,-3,-40,0,-9,-11,48,-30,69,-29,-19,51,4,-37,12,82,51,45,-34,-52,27,-33,-56,32,32,36,-3,-27,79,-16,-47,47,-19,-16,39,-30,-38,-28,-19,16,-8,14,56,-32,10,-28,16,-14,-4,-13,-15,-22,103,-31,54,-21,-32,61,30,-16,-43,5,-41,127,-12,-19,-10,-6,9,-9,10,-51,70,35,-36,8,-41,2,23,50,2,16,-34,-31,45,86,2,-26,11,5,-67,-20,-22,-3,59,24,-42,17,-45,81,-20,18,14,47,-3,-49,37,-31,-36,64,77,17,62,-14,-25,7,-50,7,-45,-15,-32,41,-80,6,51,41,-29,-25,-2,-32,20,49,-8,-20,-10,33,14,-68,-40,-8,-34,-48,47,17,36,33,-9,-18,-35,33,21,-43,-46,4,-15,-6,8,-38,44,-8,18,-16,76,-32,4,-20,13,11,-21,-7,36,-28,-36,-3,-20,-37,-33,-57,10,-28,49,-16,5,24,-18,-12,58,-25,-61,-14,-17,101,-31,-9,4,-17,3,-43,-47,-23,-58,44,7,13,-22,109,-1,-14,-53,-5,-28,-19,13,-5,1,21,-21,28,-7,-14,11,1,-62,16,37,-24,-45,-20, 
  /* [43][0][][] */ -25,13,-5,6,-10,-19,-38,-20,-7,2,-46,57,-3,18,17,-3,20,12,39,79,-16,-24,-1,-9,39,-29,-8,15,-44,-46,-2,32,-11,-43,-15,-38,38,18,-36,40,2,-39,-18,39,7,5,18,-4,-28,-10,9,34,33,36,-30,-27,76,-3,-30,-3,-30,5,33,-7,0,-5,-70,-40,43,12,38,-15,30,-19,7,35,14,21,4,-15,68,91,50,-7,-33,63,-30,-58,-18,-30,23,71,-26,12,-29,13,-14,-29,22,-46,40,20,-22,-16,-13,-25,25,39,-38,51,1,7,19,11,54,-21,-45,-30,20,-12,20,-37,-3,27,23,-20,-18,48,-8,-1,-53,-11,-34,53,-8,-17,-32,21,29,-6,45,-24,10,1,-39,-50,-21,-24,-11,96,39,49,12,-30,28,4,-20,-8,5,32,21,-32,-32,-29,-8,-44,-11,-56,14,-45,84,18,25,27,23,-42,-44,-9,-29,-27,21,-17,-17,-41,-10,32,-24,1,8,-38,44,-15,-8,-48,-19,-45,16,57,36,-13,2,-14,-24,-45,50,-40,-6,-48,0,-22,-19,4,-14,-26,76,-9,46,25,-26,38,-15,-16,-10,8,-54,39,-78,-11,-49,-9,-26,2,32,9,10,28,-17,-29,62,-17,71,-28,-27,-16,-13,6,-24,-7,12,0,-17,22,127,-1,-21,9, 
  /* [44][0][][] */ -6,10,-4,-1,-15,52,5,-55,10,-40,-17,21,-40,-18,-21,-11,-4,28,20,16,-5,14,4,29,-33,-4,-25,-33,-3,-20,-13,-1,-3,-24,27,3,9,-29,-32,-5,13,-24,-20,10,92,16,16,-16,15,-28,3,8,9,3,41,-45,27,-32,-24,22,-4,-14,-5,-20,14,-22,-23,-8,33,-11,32,-20,7,-21,1,43,1,44,14,-16,22,-39,10,11,-20,-12,15,-15,-6,39,-40,30,-16,-10,-20,13,99,-52,20,-27,28,20,-42,-29,-39,-9,45,21,44,34,-16,-21,31,11,15,-7,13,-3,-32,-36,4,-14,42,-30,-22,-29,-24,50,-16,-31,-23,36,24,-1,10,-31,-30,28,118,1,28,-6,35,4,-17,-28,-15,-61,0,24,-31,19,16,38,-22,53,-11,-11,19,1,14,-31,3,6,-39,-40,-5,-4,-12,18,18,-3,63,30,-29,-11,23,2,-19,11,-47,-1,-2,11,-26,-4,-28,7,48,-17,28,7,-13,-14,-2,-11,-35,-46,7,40,-11,-24,-24,25,2,22,-28,1,0,23,-13,15,-9,-4,127,-26,-24,3,-11,2,-35,-5,11,-24,-29,-1,-11,0,-25,-5,4,42,-8,-10,8,-35,28,18,-2,-13,-6,20,-2,-5,18,14,-14,123,-17,-29,-29,7,14,-25,-35,-11, 
  /* [45][0][][] */ 92,-57,15,-28,-35,54,-30,-46,-2,-34,-6,-8,-37,21,-11,2,-34,17,58,1,30,11,-16,-22,-74,-48,-55,19,48,-8,-26,40,-7,-25,-7,-33,-45,-36,14,30,10,48,4,-39,-58,-23,-13,-9,7,1,-36,-16,-12,-50,-24,-32,55,-38,-33,67,-54,-3,9,-3,33,-19,-22,-33,-22,20,41,30,-16,-14,-14,-27,37,18,-16,5,-41,-28,-7,12,-3,27,-8,-14,-18,-27,-10,10,-23,-34,1,-9,24,25,17,17,-21,37,-29,9,31,-39,-22,73,-66,40,-15,25,43,-46,-34,16,-3,17,-12,9,-36,-3,32,-31,-41,-28,-46,-1,-7,-20,-16,27,8,-47,26,-26,15,85,80,-21,100,-2,126,-28,16,-31,44,-6,14,15,-41,-61,127,79,-40,12,19,-25,45,42,26,7,-21,21,-13,18,-11,1,11,-18,3,41,40,51,-27,25,16,-36,-23,124,-35,5,27,-7,-16,30,33,-50,39,-33,-4,38,-17,2,42,-59,-28,-64,-1,58,13,-9,33,7,-25,-55,0,-71,-27,-14,-11,-46,-34,-20,46,83,-53,-11,-57,6,-18,114,22,-53,-39,-33,-54,42,-4,-3,-11,52,-20,-36,41,20,21,-42,-36,-54,-35,-31,-14,-21,-12,47,-60,-4,13,-31,-22,71,-42,24,-77,-32, 
  /* [46][0][][] */ 30,-23,-10,11,-30,-5,-5,48,19,-39,-8,15,-44,-15,-58,-17,16,-29,37,41,-41,23,-3,-8,-54,-15,-32,0,-44,-5,10,2,1,-38,51,37,52,-67,-52,-3,-34,-29,13,45,97,-25,4,-42,28,28,-9,-17,57,9,20,7,127,20,-36,56,28,-2,14,-46,10,-38,-4,11,0,1,47,-22,34,-36,-4,11,0,111,10,-44,4,-37,-35,18,10,-22,14,-20,-16,73,-28,40,-1,-1,-4,31,23,19,0,-45,71,65,-47,33,-39,-6,96,-9,37,19,21,3,37,105,17,-37,5,33,-42,-42,2,-41,74,-13,-52,10,2,47,15,-45,27,28,30,-16,38,-43,-40,6,57,-22,-23,-29,-72,15,-8,-36,-8,-40,-47,66,-36,-33,11,17,-23,72,17,-30,3,19,-39,-8,-10,-5,-33,-41,10,-5,-9,-25,-32,7,50,34,4,-17,-1,3,-18,-58,-42,-14,-26,19,-24,-34,-27,7,38,-31,33,-14,2,-18,-28,-20,-29,0,13,12,-10,-30,-17,-44,-20,-13,6,2,37,-17,-26,38,-31,-31,43,-49,-47,-5,20,62,-1,32,-29,13,-17,-17,-66,-26,-50,24,-27,16,0,62,-21,-25,15,62,10,21,20,29,2,-10,29,-8,-20,-4,-21,0,-5,43,19,-9,-35,4, 
  /* [47][0][][] */ -12,4,-58,29,26,40,-65,12,-13,-17,8,38,-5,12,-37,-1,-14,-44,28,71,-46,24,21,-20,-19,-70,-37,21,-44,-32,28,3,-4,26,32,22,44,-62,-19,-9,-33,-12,3,-7,43,-2,24,-51,-10,-1,23,8,50,15,-2,-43,81,-42,-14,27,-2,-9,17,-11,9,-19,-30,-14,79,-24,22,-19,7,-24,-6,1,27,76,-17,-55,0,50,3,20,3,-41,27,19,-16,-30,-1,-4,14,-11,-15,13,12,1,-5,9,42,-13,-1,-34,13,-12,49,25,36,127,-19,8,13,105,8,-41,-33,5,2,-2,-4,-6,9,-5,-1,-4,-14,82,-32,-32,-34,-13,-4,-27,-47,0,0,50,-4,-42,3,-31,-63,-2,-7,-16,-12,-32,-28,29,-20,-35,62,46,18,50,78,-37,-17,40,47,-16,46,18,-31,81,14,-34,35,-22,39,-1,80,55,-52,-34,-36,14,12,-4,-49,11,-50,-4,-34,-16,-40,27,19,3,-25,-4,42,-45,-27,-26,-4,-26,34,35,-8,3,-26,-15,26,-31,-34,24,-20,-15,-50,-8,19,-41,37,-36,-45,10,-19,11,2,-50,-16,37,-26,-13,-37,13,-20,-21,-76,3,54,78,12,-27,-6,13,25,49,-23,43,-44,2,7,24,19,50,-23,-7,12,10,16,-14,-31,-21, 
  /* [48][0][][] */ 13,-35,-2,-36,-8,27,-34,-39,-26,-79,15,79,-46,2,13,-19,-44,-5,10,70,30,41,-36,10,-73,-28,-47,20,-11,-33,-31,122,-5,20,-31,-21,3,-39,-24,9,-41,-26,-9,-17,29,-75,58,-13,-4,-25,-34,-1,28,20,-16,-21,97,-20,6,-10,40,17,-2,-15,-1,18,-2,-36,-17,-3,3,7,103,32,2,-29,66,-26,-38,15,3,-33,-44,-72,14,116,-37,-37,-10,27,-9,82,-7,-21,24,6,0,27,-19,-50,2,-22,-34,-19,-22,63,76,-7,-22,44,-23,-14,-2,14,20,-26,-16,46,5,8,-1,4,14,0,-30,-12,20,73,3,30,-34,44,11,24,-27,-85,-49,92,2,-53,80,16,-11,-16,-6,-66,-31,-34,12,-39,-54,-19,1,48,-32,-38,26,15,29,70,-5,-35,1,36,-74,-2,-13,22,-21,-16,127,31,77,-6,-42,-21,8,34,-16,-33,-10,-49,-49,4,-6,11,-52,-22,31,19,34,-37,15,-52,20,-7,-34,-19,54,-71,-48,-75,2,37,-37,-3,-18,-41,7,-45,7,-7,-15,-37,61,4,-18,21,-53,81,17,9,38,10,-18,-47,-85,-38,-11,70,-59,79,20,33,11,-45,18,-38,5,-67,-5,-6,56,0,1,-31,9,-43,40,-12,-24,54,24,19,20,-49, 
